{"learner":{"attributes":{"best_iteration":"21","best_score":"0.5400630640360983","scikit_learn":"{\"_estimator_type\": \"classifier\"}"},"feature_names":[],"feature_types":[],"gradient_booster":{"model":{"cats":{"enc":[],"feature_segments":[],"sorted_idx":[]},"gbtree_model_param":{"num_parallel_tree":"1","num_trees":"37"},"iteration_indptr":[0,1,2,3,4,5,6,7,8,9,10,11,12,13,14,15,16,17,18,19,20,21,22,23,24,25,26,27,28,29,30,31,32,33,34,35,36,37],"tree_info":[0,0,0,0,0,0,0,0,0,0,0,0,0,0,0,0,0,0,0,0,0,0,0,0,0,0,0,0,0,0,0,0,0,0,0,0,0],"trees":[{"base_weights":[-4.727616E-3,-2.0307125E-1,1.1737589E-1,6.0527956E-1,-2.7822897E-1,5.1422346E-1,5.956761E-2,8.294647E-1,-3.298407E-1,-8.439646E-2,-2.6026237E-1,-6.265462E-2,5.484971E-1,2.5655806E-1,-5.6402978E-2,5.36367E-2,1.5088555E-2,-3.9595902E-2,4.4189285E-2,-1.4241007E-2,3.3706542E-2,5.6502104E-2,2.2475163E-2,-6.645199E-4,1.844363E-2,2.010132E-2,-5.0549093E-3],"categories":[],"categories_nodes":[],"categories_segments":[],"categories_sizes":[],"default_left":[0,0,0,0,0,0,0,0,0,0,0,0,0,0,0,0,0,0,0,0,0,0,0,0,0,0,0],"id":0,"left_children":[1,3,5,7,9,11,13,15,17,-1,19,-1,21,23,25,-1,-1,-1,-1,-1,-1,-1,-1,-1,-1,-1,-1],"loss_changes":[3.959188E1,3.801255E1,2.3183151E1,1.1448284E1,1.4012733E1,8.47253E0,2.0217749E1,5.2323112E0,6.8816824E0,0E0,1.3147839E1,0E0,6.7905846E0,9.942493E0,1.1463012E1,0E0,0E0,0E0,0E0,0E0,0E0,0E0,0E0,0E0,0E0,0E0,0E0],"parents":[2147483647,0,0,1,1,2,2,3,3,4,4,5,5,6,6,7,7,8,8,10,10,12,12,13,13,14,14],"right_children":[2,4,6,8,10,12,14,16,18,-1,20,-1,22,24,26,-1,-1,-1,-1,-1,-1,-1,-1,-1,-1,-1,-1],"split_conditions":[4.9929455E-1,1.367758E8,4.233172E-1,1.0847117E-1,1.2025012E-3,-2.7809095E-2,9.4324064E8,8.706978E-1,1.411479E-1,-8.439646E-2,1.3740778E-1,-6.265462E-2,2.5524408E-1,2.1694362E-1,-2.6775403E-2,5.36367E-2,1.5088555E-2,-3.9595902E-2,4.4189285E-2,-1.4241007E-2,3.3706542E-2,5.6502104E-2,2.2475163E-2,-6.645199E-4,1.844363E-2,2.010132E-2,-5.0549093E-3],"split_indices":[7,2,27,8,28,22,0,30,13,0,9,0,27,6,19,0,0,0,0,0,0,0,0,0,0,0,0],"split_type":[0,0,0,0,0,0,0,0,0,0,0,0,0,0,0,0,0,0,0,0,0,0,0,0,0,0,0],"sum_hessian":[1.6327972E3,6.2191003E2,1.0108872E3,5.2304203E1,5.6960583E2,1.27527725E2,8.8335944E2,4.2280815E1,1.0023388E1,5.9985433E0,5.636073E2,1.7495751E0,1.25778145E2,3.2688776E2,5.564717E2,2.8232582E1,1.4048232E1,7.511087E0,2.512301E0,5.4985126E2,1.375605E1,1.6781137E1,1.0899701E2,9.632872E1,2.3055905E2,4.8724087E1,5.0774762E2],"tree_param":{"num_deleted":"0","num_feature":"31","num_nodes":"27","size_leaf_vector":"1"}},{"base_weights":[-3.6976407E-3,3.3409694E-1,-5.253713E-2,5.406282E-1,-7.815567E-2,4.4964084E-1,-8.1758365E-2,8.1361115E-1,2.87622E-1,4.772207E-1,-5.085999E-1,-1.2094829E0,5.464491E-1,-2.1292308E-1,1.6612237E-2,4.8460778E-2,-1.1279975E-2,-2.631633E-2,2.0670626E-2,3.24508E-2,-4.938119E-2,-4.7025677E-2,1.7421984E-3,-1.5669446E-2,-7.075121E-2,3.4896825E-2,-1.31178675E-2,4.7316484E-2,-1.1762688E-2,-8.002766E-4,2.339716E-2],"categories":[],"categories_nodes":[],"categories_segments":[],"categories_sizes":[],"default_left":[0,0,0,0,0,0,0,0,0,0,0,0,0,0,0,0,0,0,0,0,0,0,0,0,0,0,0,0,0,0,0],"id":1,"left_children":[1,3,5,7,9,11,13,15,17,19,21,23,25,27,29,-1,-1,-1,-1,-1,-1,-1,-1,-1,-1,-1,-1,-1,-1,-1,-1],"loss_changes":[2.6986664E1,1.7635612E1,2.1007532E1,9.282745E0,1.6938923E1,1.3307599E1,1.7439629E1,1.0847946E1,7.6978984E0,8.445051E0,9.381773E0,4.134097E-1,9.3829365E0,1.521661E1,1.1389138E1,0E0,0E0,0E0,0E0,0E0,0E0,0E0,0E0,0E0,0E0,0E0,0E0,0E0,0E0,0E0,0E0],"parents":[2147483647,0,0,1,1,2,2,3,3,4,4,5,5,6,6,7,7,8,8,9,9,10,10,11,11,12,12,13,13,14,14],"right_children":[2,4,6,8,10,12,14,16,18,20,22,24,26,28,30,-1,-1,-1,-1,-1,-1,-1,-1,-1,-1,-1,-1,-1,-1,-1,-1],"split_conditions":[1.5829725E-3,9.738998E8,1.367758E8,6.44912E-1,2.4444444E-1,1.7497399E-3,5.031544E-1,5.1488712E-2,2.2544523E-1,7.216973E-2,3.4130504E-3,1.5247146E8,1.07281014E-1,1.7846608E-1,1.4817875E9,4.8460778E-2,-1.1279975E-2,-2.631633E-2,2.0670626E-2,3.24508E-2,-4.938119E-2,-4.7025677E-2,1.7421984E-3,-1.5669446E-2,-7.075121E-2,3.4896825E-2,-1.31178675E-2,4.7316484E-2,-1.1762688E-2,-8.002766E-4,2.339716E-2],"split_indices":[24,0,2,7,28,24,7,9,6,8,25,0,8,3,1,0,0,0,0,0,0,0,0,0,0,0,0,0,0,0,0],"split_type":[0,0,0,0,0,0,0,0,0,0,0,0,0,0,0,0,0,0,0,0,0,0,0,0,0,0,0,0,0,0,0],"sum_hessian":[1.6337181E3,2.0563293E2,1.4280852E3,1.3679144E2,6.884149E1,7.773815E1,1.350347E3,6.473228E1,7.2059166E1,3.0011187E1,3.8830307E1,3.6522036E0,7.408595E1,5.7821124E2,7.721358E2,5.636058E1,8.371698E0,9.21939E0,6.283977E1,2.7359444E1,2.6517448E0,2.1228138E1,1.7602169E1,1.1524763E0,2.4997272E0,6.2514267E1,1.1571683E1,1.0145581E1,5.680657E2,7.2099396E2,5.1141823E1],"tree_param":{"num_deleted":"0","num_feature":"31","num_nodes":"31","size_leaf_vector":"1"}},{"base_weights":[-1.3530209E-3,1.3465305E-1,-1.3704838E-1,8.8045627E-1,9.170353E-2,-1.6673864E-1,2.7679998E-1,1.1836692E0,2.3133096E-1,6.643286E-1,4.028749E-2,-1.8353109E-1,5.803096E-1,5.708191E-1,-4.9225184E-1,6.850408E-2,-6.7099906E-4,2.8444314E-2,-5.004106E-2,1.5429258E-2,6.989702E-2,-3.920305E-3,1.1142592E-2,-1.9205008E-2,-5.148968E-3,4.1486222E-2,-5.972423E-2,1.9478759E-2,7.618734E-2,5.084256E-2,-4.5745905E-2],"categories":[],"categories_nodes":[],"categories_segments":[],"categories_sizes":[],"default_left":[0,0,0,0,0,0,0,0,0,0,0,0,0,0,0,0,0,0,0,0,0,0,0,0,0,0,0,0,0,0,0],"id":2,"left_children":[1,3,5,7,9,11,13,15,17,19,21,23,25,27,29,-1,-1,-1,-1,-1,-1,-1,-1,-1,-1,-1,-1,-1,-1,-1,-1],"loss_changes":[3.0031689E1,2.5951696E1,1.00548E1,8.413452E0,2.2630892E1,9.64872E0,1.2695162E1,6.6776314E0,6.931149E0,1.6099352E1,1.5342477E1,1.1991793E1,8.499775E0,6.346034E0,1.0958204E1,0E0,0E0,0E0,0E0,0E0,0E0,0E0,0E0,0E0,0E0,0E0,0E0,0E0,0E0,0E0,0E0],"parents":[2147483647,0,0,1,1,2,2,3,3,4,4,5,5,6,6,7,7,8,8,9,9,10,10,11,11,12,12,13,13,14,14],"right_children":[2,4,6,8,10,12,14,16,18,20,22,24,26,28,30,-1,-1,-1,-1,-1,-1,-1,-1,-1,-1,-1,-1,-1,-1,-1,-1],"split_conditions":[8.098424E-3,3.325737E-1,4.1142818E-2,3.107032E-1,3.9881108E7,1.3740778E-1,8.258804E7,6.2065274E-1,9.0174336E8,7.576379E-2,7.401656E-2,1.526249E-1,-2.1613284E-3,1.9339974E0,7.3571426E-1,6.850408E-2,-6.7099906E-4,2.8444314E-2,-5.004106E-2,1.5429258E-2,6.989702E-2,-3.920305E-3,1.1142592E-2,-1.9205008E-2,-5.148968E-3,4.1486222E-2,-5.972423E-2,1.9478759E-2,7.618734E-2,5.084256E-2,-4.5745905E-2],"split_indices":[26,27,22,29,11,9,11,28,1,16,16,6,22,27,30,0,0,0,0,0,0,0,0,0,0,0,0,0,0,0,0],"split_type":[0,0,0,0,0,0,0,0,0,0,0,0,0,0,0,0,0,0,0,0,0,0,0,0,0,0,0,0,0,0,0],"sum_hessian":[1.6252582E3,8.117037E2,8.1355457E2,4.3137447E1,7.685662E2,7.596528E2,5.3901814E1,2.884171E1,1.4295738E1,6.2341587E1,7.062246E2,7.436901E2,1.5962641E1,3.9180378E1,1.4721436E1,2.4830553E1,4.0111566E0,1.1644074E1,2.6516633E0,4.2939823E1,1.9401764E1,4.2832263E2,2.7790198E2,2.1201556E2,5.3167456E2,1.4462673E1,1.4999682E0,3.410293E1,5.0774517E0,2.9134269E0,1.1808009E1],"tree_param":{"num_deleted":"0","num_feature":"31","num_nodes":"31","size_leaf_vector":"1"}},{"base_weights":[6.8363687E-3,1.7856003E-1,-9.23403E-2,-2.1683712E-1,2.7431378E-1,8.1558096E-1,-1.0514481E-1,7.8717417E-1,-3.6273652E-1,8.240026E-1,2.0735554E-1,1.051941E0,-3.142618E-2,-1.7879653E-1,3.2784577E-2,5.774949E-2,-6.3957356E-2,2.4595313E-2,-2.7181182E-2,4.5662135E-2,-4.181842E-2,1.2219831E-2,-3.5555433E-2,6.907144E-2,-5.4985613E-2,3.7509114E-2,-9.680956E-3,-3.3988222E-2,3.8216996E-3],"categories":[],"categories_nodes":[],"categories_segments":[],"categories_sizes":[],"default_left":[0,0,0,0,0,0,0,0,0,0,0,0,0,0,0,0,0,0,0,0,0,0,0,0,0,0,0,0,0],"id":3,"left_children":[1,3,5,7,9,11,13,15,17,19,21,23,-1,25,27,-1,-1,-1,-1,-1,-1,-1,-1,-1,-1,-1,-1,-1,-1],"loss_changes":[2.7590748E1,2.2513971E1,1.2024945E1,1.7304752E1,1.7418694E1,5.5750885E0,1.030263E1,1.292094E1,1.6055695E1,8.402924E0,1.4712309E1,1.0555068E1,0E0,9.245911E0,1.1052126E1,0E0,0E0,0E0,0E0,0E0,0E0,0E0,0E0,0E0,0E0,0E0,0E0,0E0,0E0],"parents":[2147483647,0,0,1,1,2,2,3,3,4,4,5,5,6,6,7,7,8,8,9,9,10,10,11,11,13,13,14,14],"right_children":[2,4,6,8,10,12,14,16,18,20,22,24,-1,26,28,-1,-1,-1,-1,-1,-1,-1,-1,-1,-1,-1,-1,-1,-1],"split_conditions":[6.895195E-3,-5.2168244E-3,2.5524408E-1,4.8747475E8,2.9350296E-1,1.15873724E-1,2.1567124E-1,9.080993E-2,-9.387882E-3,1.8361671E-3,9.795716E-2,1.5130665E-3,-3.142618E-2,1.7846608E-1,4.6245477E-1,5.774949E-2,-6.3957356E-2,2.4595313E-2,-2.7181182E-2,4.5662135E-2,-4.181842E-2,1.2219831E-2,-3.5555433E-2,6.907144E-2,-5.4985613E-2,3.7509114E-2,-9.680956E-3,-3.3988222E-2,3.8216996E-3],"split_indices":[26,22,27,0,30,5,6,17,19,20,17,20,0,3,7,0,0,0,0,0,0,0,0,0,0,0,0,0,0],"split_type":[0,0,0,0,0,0,0,0,0,0,0,0,0,0,0,0,0,0,0,0,0,0,0,0,0,0,0,0,0],"sum_hessian":[1.6180647E3,5.920808E2,1.0259839E3,1.1518429E2,4.7689648E2,1.33964405E1,1.01258746E3,1.4056783E1,1.0112751E2,5.055583E1,4.2634067E2,1.1745576E1,1.6508651E0,6.59911E2,3.5267642E2,1.2307097E1,1.7496853E0,1.7364677E1,8.376283E1,4.840422E1,2.151608E0,4.1051862E2,1.582205E1,1.0496231E1,1.2493443E0,9.584891E0,6.503262E2,1.9516048E1,3.3316037E2],"tree_param":{"num_deleted":"0","num_feature":"31","num_nodes":"29","size_leaf_vector":"1"}},{"base_weights":[-2.4401955E-3,1.371077E-1,-1.3239618E-1,7.775136E-1,8.992137E-2,-4.7020796E-1,-9.538663E-2,9.1105866E-1,-8.53788E-1,-2.0584337E-1,1.7967169E-1,-7.5124174E-1,1.288028E-1,-1.8066552E-1,5.8045384E-2,5.225436E-2,-1.4765504E-2,2.7142042E-2,-7.149603E-2,-2.5088808E-2,7.208325E-3,1.0438147E-2,-2.2681048E-2,-7.607527E-2,-2.2415474E-2,-8.521208E-3,5.868128E-2,1.0560343E-2,-1.2116577E-2,1.5270563E-2,-1.0073975E-2],"categories":[],"categories_nodes":[],"categories_segments":[],"categories_sizes":[],"default_left":[0,0,0,0,0,0,0,0,0,0,0,0,0,0,0,0,0,0,0,0,0,0,0,0,0,0,0,0,0,0,0],"id":4,"left_children":[1,3,5,7,9,11,13,15,17,19,21,23,25,27,29,-1,-1,-1,-1,-1,-1,-1,-1,-1,-1,-1,-1,-1,-1,-1,-1],"loss_changes":[2.9307177E1,2.3478516E1,1.0416703E1,1.2399677E1,1.9333252E1,1.3962746E1,9.894597E0,8.35976E0,4.4397492E0,1.7649683E1,1.0379087E1,1.2433996E1,8.690357E0,1.1790198E1,1.7434916E1,0E0,0E0,0E0,0E0,0E0,0E0,0E0,0E0,0E0,0E0,0E0,0E0,0E0,0E0,0E0,0E0],"parents":[2147483647,0,0,1,1,2,2,3,3,4,4,5,5,6,6,7,7,8,8,9,9,10,10,11,11,12,12,13,13,14,14],"right_children":[2,4,6,8,10,12,14,16,18,20,22,24,26,28,30,-1,-1,-1,-1,-1,-1,-1,-1,-1,-1,-1,-1,-1,-1,-1,-1],"split_conditions":[7.920081E-3,3.4130924E7,2.6592538E-3,1.07281014E-1,-5.08202E-3,4.0014103E-2,5.175726E-1,6.8760335E-2,6.39497E7,9.5549303E-1,9.839188E-2,4.3977764E-1,5.726809E-1,2.6116008E-1,4.958825E-3,5.225436E-2,-1.4765504E-2,2.7142042E-2,-7.149603E-2,-2.5088808E-2,7.208325E-3,1.0438147E-2,-2.2681048E-2,-7.607527E-2,-2.2415474E-2,-8.521208E-3,5.868128E-2,1.0560343E-2,-1.2116577E-2,1.5270563E-2,-1.0073975E-2],"split_indices":[26,11,24,8,22,9,7,9,1,3,17,30,7,4,24,0,0,0,0,0,0,0,0,0,0,0,0,0,0,0,0],"split_type":[0,0,0,0,0,0,0,0,0,0,0,0,0,0,0,0,0,0,0,0,0,0,0,0,0,0,0,0,0,0,0],"sum_hessian":[1.6140476E3,7.7827454E2,8.3577313E2,5.2347282E1,7.2592725E2,8.136781E1,7.544053E2,4.8794296E1,3.552986E0,1.6869925E2,5.5722797E2,5.52108E1,2.6157011E1,4.8478174E2,2.6962357E2,4.40356E1,4.7586994E0,1.0545031E0,2.498483E0,9.117627E1,7.752299E1,5.33396E2,2.3832E1,1.4448954E1,4.0761845E1,2.0984222E1,5.1727877E0,6.558434E1,4.1919742E2,1.3795503E2,1.3166852E2],"tree_param":{"num_deleted":"0","num_feature":"31","num_nodes":"31","size_leaf_vector":"1"}},{"base_weights":[1.1594066E-3,1.1452021E-1,-1.22208975E-1,9.813795E-2,8.278848E-2,3.0342814E-1,-1.6421124E-1,5.411116E-1,4.2063426E-2,-1.5292841E-1,5.710093E-1,-8.6427525E-2,-3.946781E-1,3.079023E-2,-5.664746E-2,2.6373817E-3,-6.873832E-2,-3.3115976E-2,4.866306E-2,-2.2336783E-2,3.8037743E-2,-3.3312493E-3,-5.1142227E-2,-2.4773536E-2,2.2938453E-2],"categories":[],"categories_nodes":[],"categories_segments":[],"categories_sizes":[],"default_left":[0,0,0,0,0,0,0,0,0,0,0,0,0,0,0,0,0,0,0,0,0,0,0,0,0],"id":5,"left_children":[1,3,5,7,-1,9,11,13,15,17,19,21,23,-1,-1,-1,-1,-1,-1,-1,-1,-1,-1,-1,-1],"loss_changes":[2.2850725E1,2.1337051E1,1.4037938E1,2.0931957E1,0E0,8.711804E0,1.274404E1,1.2539713E1,1.142425E1,1.6072905E1,8.978441E0,9.838064E0,1.5675711E1,0E0,0E0,0E0,0E0,0E0,0E0,0E0,0E0,0E0,0E0,0E0,0E0],"parents":[2147483647,0,0,1,1,2,2,3,3,5,5,6,6,7,7,8,8,9,9,10,10,11,11,12,12],"right_children":[2,4,6,8,-1,10,12,14,16,18,20,22,24,-1,-1,-1,-1,-1,-1,-1,-1,-1,-1,-1,-1],"split_conditions":[8.283624E-3,3.112767E9,2.5489792E-1,5.3388444E7,8.278848E-2,-7.322286E-2,1.18842E0,9.795716E-2,7.3685393E0,1.2118698E-2,3.408231E-2,1.2591827E-1,1.23446025E-1,3.079023E-2,-5.664746E-2,2.6373817E-3,-6.873832E-2,-3.3115976E-2,4.866306E-2,-2.2336783E-2,3.8037743E-2,-3.3312493E-3,-5.1142227E-2,-2.4773536E-2,2.2938453E-2],"split_indices":[26,10,4,10,0,19,27,17,3,24,14,14,17,0,0,0,0,0,0,0,0,0,0,0,0],"split_type":[0,0,0,0,0,0,0,0,0,0,0,0,0,0,0,0,0,0,0,0,0,0,0,0,0],"sum_hessian":[1.6319283E3,8.504959E2,7.8143243E2,8.426034E2,7.892533E0,6.962739E1,7.1180505E2,9.370548E1,7.4889795E2,2.5893984E1,4.373341E1,5.3321674E2,1.7858833E2,9.0308266E1,3.3972132E0,7.4424835E2,4.6495514E0,1.8113081E1,7.780903E0,6.6594563E0,3.707395E1,5.232232E2,9.993523E0,1.6009988E2,1.8488451E1],"tree_param":{"num_deleted":"0","num_feature":"31","num_nodes":"25","size_leaf_vector":"1"}},{"base_weights":[3.8827686E-3,7.6841615E-2,-1.4035842E-1,-1.2651724E-1,1.6541837E-1,4.9070325E-1,-1.7510502E-1,7.645312E-1,-2.1000837E-1,2.2492044E-1,-2.0977117E-1,-5.005139E-1,8.26302E-1,-1.085674E-1,-5.1800925E-1,4.9483694E-2,-2.8885458E-2,-1.5247993E-2,1.6288795E-2,1.8962154E-4,1.5373333E-2,2.3488011E-3,-3.8954552E-2,-6.852426E-2,7.732019E-3,-5.8118284E-2,5.1479965E-2,5.6625945E-3,-1.1344369E-2,-1.8931221E-2,-6.0166866E-2],"categories":[],"categories_nodes":[],"categories_segments":[],"categories_sizes":[],"default_left":[0,0,0,0,0,0,0,0,0,0,0,0,0,0,0,0,0,0,0,0,0,0,0,0,0,0,0,0,0,0,0],"id":6,"left_children":[1,3,5,7,9,11,13,15,17,19,21,23,25,27,29,-1,-1,-1,-1,-1,-1,-1,-1,-1,-1,-1,-1,-1,-1,-1,-1],"loss_changes":[1.7113226E1,1.9472872E1,1.2063647E1,2.4578272E1,1.6850266E1,9.983989E0,1.1773377E1,9.134386E0,1.5406367E1,1.18657875E1,1.517203E1,4.7145166E0,1.0038758E1,1.1455324E1,7.567644E0,0E0,0E0,0E0,0E0,0E0,0E0,0E0,0E0,0E0,0E0,0E0,0E0,0E0,0E0,0E0,0E0],"parents":[2147483647,0,0,1,1,2,2,3,3,4,4,5,5,6,6,7,7,8,8,9,9,10,10,11,11,12,12,13,13,14,14],"right_children":[2,4,6,8,10,12,14,16,18,20,22,24,26,28,30,-1,-1,-1,-1,-1,-1,-1,-1,-1,-1,-1,-1,-1,-1,-1,-1],"split_conditions":[5.129934E-3,5.175726E-1,1.7287026E-1,4.2853696E7,5.5427283E-1,1.9013104E-1,9.699855E-2,6.8760335E-2,5.5087173E-1,2.6988925E-3,1.0915592E8,1.0195303E-1,2.2056744E-2,4.6476106E8,5.938805E-2,4.9483694E-2,-2.8885458E-2,-1.5247993E-2,1.6288795E-2,1.8962154E-4,1.5373333E-2,2.3488011E-3,-3.8954552E-2,-6.852426E-2,7.732019E-3,-5.8118284E-2,5.1479965E-2,5.6625945E-3,-1.1344369E-2,-1.8931221E-2,-6.0166866E-2],"split_indices":[24,7,4,10,29,7,14,15,29,25,10,13,14,1,15,0,0,0,0,0,0,0,0,0,0,0,0,0,0,0,0],"split_type":[0,0,0,0,0,0,0,0,0,0,0,0,0,0,0,0,0,0,0,0,0,0,0,0,0,0,0,0,0,0,0],"sum_hessian":[1.6241401E3,1.0788916E3,5.452485E2,3.2721866E2,7.51673E2,2.7770113E1,5.174784E2,2.7334774E1,2.9988388E2,6.4912714E2,1.0254586E2,6.8997517E0,2.0870361E1,4.344866E2,8.299178E1,2.3633282E1,3.701493E0,2.5510507E2,4.4778812E1,1.7673325E2,4.7239386E2,7.130625E1,3.1239614E1,2.4949234E0,4.4048285E0,1.4981173E0,1.9372244E1,1.5115428E2,2.833323E2,7.0255424E1,1.2736361E1],"tree_param":{"num_deleted":"0","num_feature":"31","num_nodes":"31","size_leaf_vector":"1"}},{"base_weights":[-1.9280837E-3,4.670192E-2,-2.7605283E-1,3.7879586E-1,3.3153824E-3,-4.762494E-1,2.5282094E-2,7.759923E-1,9.513057E-2,-1.1111964E0,1.8986834E-2,-1.2214893E-1,-8.2446074E-1,1.4404702E0,-7.747247E-2,-3.5580227E-3,4.7857177E-2,-6.358591E-2,9.956997E-3,-2.5980247E-3,-7.695433E-2,2.192957E-2,-4.6012137E-4,3.3277195E-2,-1.6359407E-2,9.246568E-3,-4.578286E-2,8.3254516E-2,1.4309107E-2,1.1541592E-2,-2.4697585E-2],"categories":[],"categories_nodes":[],"categories_segments":[],"categories_sizes":[],"default_left":[0,0,0,0,0,0,0,0,0,0,0,0,0,0,0,0,0,0,0,0,0,0,0,0,0,0,0,0,0,0,0],"id":7,"left_children":[1,3,5,7,9,11,13,15,17,19,21,23,25,27,29,-1,-1,-1,-1,-1,-1,-1,-1,-1,-1,-1,-1,-1,-1,-1,-1],"loss_changes":[2.1654282E1,1.9877693E1,1.4776823E1,1.7887262E1,2.1351736E1,1.8037346E1,1.4456433E1,1.0238953E1,1.3636159E1,7.6029415E0,1.4260902E1,1.2186887E1,6.980732E0,1.2680807E0,1.2044839E1,0E0,0E0,0E0,0E0,0E0,0E0,0E0,0E0,0E0,0E0,0E0,0E0,0E0,0E0,0E0,0E0],"parents":[2147483647,0,0,1,1,2,2,3,3,4,4,5,5,6,6,7,7,8,8,9,9,10,10,11,11,12,12,13,13,14,14],"right_children":[2,4,6,8,10,12,14,16,18,20,22,24,26,28,30,-1,-1,-1,-1,-1,-1,-1,-1,-1,-1,-1,-1,-1,-1,-1,-1],"split_conditions":[3.5885413E0,5.3388444E7,1.3328168E8,7.482953E-1,1.8630376E8,-5.00775E-3,6.4617604E7,2.4252567E-2,1.1058354E-2,2.1139493E0,3.584792E-1,6.052141E7,1.6630644E-2,4.9532216E-2,5.129934E-3,-3.5580227E-3,4.7857177E-2,-6.358591E-2,9.956997E-3,-2.5980247E-3,-7.695433E-2,2.192957E-2,-4.6012137E-4,3.3277195E-2,-1.6359407E-2,9.246568E-3,-4.578286E-2,8.3254516E-2,1.4309107E-2,1.1541592E-2,-2.4697585E-2],"split_indices":[18,10,10,4,1,23,11,16,9,18,27,11,28,8,24,0,0,0,0,0,0,0,0,0,0,0,0,0,0,0,0],"split_type":[0,0,0,0,0,0,0,0,0,0,0,0,0,0,0,0,0,0,0,0,0,0,0,0,0,0,0,0,0,0,0],"sum_hessian":[1.6224263E3,1.3786772E3,2.4374907E2,1.5841202E2,1.2202653E3,1.4610289E2,9.764618E1,6.527561E1,9.3136406E1,1.59512205E1,1.204314E3,7.310861E1,7.299427E1,5.7287245E0,9.191746E1,1.1606249E1,5.366936E1,5.792095E0,8.7344315E1,4.9123077E0,1.1038913E1,7.489679E1,1.1294172E3,1.4636002E1,5.847261E1,5.9632525E0,6.703102E1,4.425092E0,1.3036325E0,5.3074272E1,3.8843185E1],"tree_param":{"num_deleted":"0","num_feature":"31","num_nodes":"31","size_leaf_vector":"1"}},{"base_weights":[5.1542446E-3,8.891946E-2,-1.4017038E-1,7.0739686E-1,5.5284005E-2,-1.5088376E-1,9.989944E-1,9.275172E-1,-2.9198298E-1,4.5308998E-1,8.3305165E-3,-1.2337372E-1,-5.5706584E-1,-2.2815552E-2,7.953701E-2,5.3599406E-2,-2.367105E-3,-3.451415E-2,5.724916E-2,2.5569797E-2,-4.5675892E-2,3.1412446E-3,-1.2882954E-2,-2.753649E-3,-1.6945515E-2,-6.184218E-2,9.911004E-4],"categories":[],"categories_nodes":[],"categories_segments":[],"categories_sizes":[],"default_left":[0,0,0,0,0,0,0,0,0,0,0,0,0,0,0,0,0,0,0,0,0,0,0,0,0,0,0],"id":8,"left_children":[1,3,5,7,9,11,13,15,17,19,21,23,25,-1,-1,-1,-1,-1,-1,-1,-1,-1,-1,-1,-1,-1,-1],"loss_changes":[1.9584084E1,2.119035E1,7.330018E0,1.1831491E1,1.80948E1,6.4529924E0,5.558766E0,6.149929E0,6.654764E0,8.616552E0,1.2593212E1,8.047274E0,1.443134E1,0E0,0E0,0E0,0E0,0E0,0E0,0E0,0E0,0E0,0E0,0E0,0E0,0E0,0E0],"parents":[2147483647,0,0,1,1,2,2,3,3,4,4,5,5,6,6,7,7,8,8,9,9,10,10,11,11,12,12],"right_children":[2,4,6,8,10,12,14,16,18,20,22,24,26,-1,-1,-1,-1,-1,-1,-1,-1,-1,-1,-1,-1,-1,-1],"split_conditions":[5.8238544E-3,3.371666E-1,3.05508E8,4.7267623E-2,5.4135268E7,1.4287907E8,2.9942338E0,1.324481E8,1.0052529E-1,6.6380954E-1,1.6831273E-2,6.0355432E-2,1.3527931E8,-2.2815552E-2,7.953701E-2,5.3599406E-2,-2.367105E-3,-3.451415E-2,5.724916E-2,2.5569797E-2,-4.5675892E-2,3.1412446E-3,-1.2882954E-2,-2.753649E-3,-1.6945515E-2,-6.184218E-2,9.911004E-4],"split_indices":[25,27,11,8,10,11,18,11,8,28,23,9,10,0,0,0,0,0,0,0,0,0,0,0,0,0,0],"split_type":[0,0,0,0,0,0,0,0,0,0,0,0,0,0,0,0,0,0,0,0,0,0,0,0,0,0,0],"sum_hessian":[1.6067698E3,1.019511E3,5.872587E2,5.1552357E1,9.679587E2,5.826467E2,4.612003E0,4.230606E1,9.246295E0,1.0127474E2,8.666839E2,5.469092E2,3.573752E1,1.399363E0,3.2126398E0,3.675888E1,5.547179E0,7.6464634E0,1.5998313E0,9.773087E1,3.5438669E0,7.1994885E2,1.4673506E2,4.1625797E2,1.3065121E2,1.5880585E1,1.9856936E1],"tree_param":{"num_deleted":"0","num_feature":"31","num_nodes":"27","size_leaf_vector":"1"}},{"base_weights":[9.206525E-3,-1.3159998E-1,9.5129624E-2,3.8815424E-1,-1.793501E-1,1.5931831E-1,-1.3259341E-1,7.125444E-1,-1.6995364E-1,-4.858713E-1,-9.003894E-2,-4.6909222E-1,1.856961E-1,1.2061491E0,-1.7652737E-1,4.8851177E-2,-9.4123294E-5,-5.1383324E-2,2.0264067E-2,-1.8726332E-2,-6.0391065E-2,-2.2391511E-2,-4.023756E-4,-4.3428163E-3,-5.623141E-2,3.4957614E-2,7.933076E-3,8.3690055E-2,-6.5315613E-3,1.1526959E-2,-1.4151498E-2],"categories":[],"categories_nodes":[],"categories_segments":[],"categories_sizes":[],"default_left":[0,0,0,0,0,0,0,0,0,0,0,0,0,0,0,0,0,0,0,0,0,0,0,0,0,0,0,0,0,0,0],"id":9,"left_children":[1,3,5,7,9,11,13,15,17,19,21,23,25,27,29,-1,-1,-1,-1,-1,-1,-1,-1,-1,-1,-1,-1,-1,-1,-1,-1],"loss_changes":[1.9740051E1,1.5416106E1,1.4831599E1,9.597813E0,1.5478546E1,1.3196722E1,1.3349143E1,6.2932034E0,1.0308071E1,9.81332E0,1.2913034E1,7.9565177E0,1.0434971E1,4.734915E0,9.478149E0,0E0,0E0,0E0,0E0,0E0,0E0,0E0,0E0,0E0,0E0,0E0,0E0,0E0,0E0,0E0,0E0],"parents":[2147483647,0,0,1,1,2,2,3,3,4,4,5,5,6,6,7,7,8,8,9,9,10,10,11,11,12,12,13,13,14,14],"right_children":[2,4,6,8,10,12,14,16,18,20,22,24,26,28,30,-1,-1,-1,-1,-1,-1,-1,-1,-1,-1,-1,-1,-1,-1,-1,-1],"split_conditions":[4.9929455E-1,1.367758E8,4.875957E-3,8.706978E-1,5.73248E-1,1.2397418E-2,1.4964509E-3,1.13651186E-1,1.7256804E-2,1.0812177E-2,2.9140599E0,6.5945965E8,3.1284794E-1,1.1191015E0,5.2389693E-1,4.8851177E-2,-9.4123294E-5,-5.1383324E-2,2.0264067E-2,-1.8726332E-2,-6.0391065E-2,-2.2391511E-2,-4.023756E-4,-4.3428163E-3,-5.623141E-2,3.4957614E-2,7.933076E-3,8.3690055E-2,-6.5315613E-3,1.1526959E-2,-1.4151498E-2],"split_indices":[7,2,24,30,27,8,17,14,15,21,18,1,27,3,7,0,0,0,0,0,0,0,0,0,0,0,0,0,0,0,0],"split_type":[0,0,0,0,0,0,0,0,0,0,0,0,0,0,0,0,0,0,0,0,0,0,0,0,0,0,0,0,0,0,0],"sum_hessian":[1.6295726E3,6.173533E2,1.01221936E3,5.1344604E1,5.6600867E2,7.8987604E2,2.2234337E2,3.2296265E1,1.9048338E1,1.2670597E2,4.3930267E2,3.1143585E1,7.587324E2,6.224313E0,2.1611905E2,2.3302261E1,8.994004E0,7.330929E0,1.1717408E1,1.1109138E2,1.5614594E1,8.107006E1,3.582326E2,2.0388039E1,1.0755547E1,3.6707184E1,7.2202527E2,4.4243937E0,1.7999194E0,4.4576664E1,1.7154239E2],"tree_param":{"num_deleted":"0","num_feature":"31","num_nodes":"31","size_leaf_vector":"1"}},{"base_weights":[9.526992E-3,1.0590659E-1,-1.2242265E-1,4.8777983E-1,5.5650823E-2,-1.9483687E-1,1.0400386E-1,-3.3824587E-1,6.398797E-1,-1.4679968E-1,1.2725529E-1,4.930531E-1,-2.30231E-1,5.6485885E-1,-8.628719E-2,3.1225411E-2,-3.915563E-2,3.634712E-2,-1.7933233E-2,4.0804106E-3,-2.4560144E-2,2.9082999E-2,3.5175064E-3,3.2650273E-2,-4.2780053E-2,-1.2983731E-2,2.4159854E-2,3.6670182E-2,-5.94937E-2,-5.1693108E-2,2.550715E-3],"categories":[],"categories_nodes":[],"categories_segments":[],"categories_sizes":[],"default_left":[0,0,0,0,0,0,0,0,0,0,0,0,0,0,0,0,0,0,0,0,0,0,0,0,0,0,0,0,0,0,0],"id":10,"left_children":[1,3,5,7,9,11,13,15,17,19,21,23,25,27,29,-1,-1,-1,-1,-1,-1,-1,-1,-1,-1,-1,-1,-1,-1,-1,-1],"loss_changes":[2.055668E1,1.7898998E1,1.12083435E1,1.38484955E1,1.2000977E1,1.2709574E1,1.4606023E1,7.9955893E0,8.256741E0,1.7065372E1,1.576201E1,6.088704E0,1.04753895E1,1.5258943E1,1.545085E1,0E0,0E0,0E0,0E0,0E0,0E0,0E0,0E0,0E0,0E0,0E0,0E0,0E0,0E0,0E0,0E0],"parents":[2147483647,0,0,1,1,2,2,3,3,4,4,5,5,6,6,7,7,8,8,9,9,10,10,11,11,12,12,13,13,14,14],"right_children":[2,4,6,8,10,12,14,16,18,20,22,24,26,28,30,-1,-1,-1,-1,-1,-1,-1,-1,-1,-1,-1,-1,-1,-1,-1,-1],"split_conditions":[8.819108E-3,4.233172E-1,1.32335016E8,1.7915414E-1,2.6082857E-2,1.367758E8,-9.207172E-3,2.9086352E8,3.7179643E-3,1.4169041E-2,1.7442869E8,7.771502E-1,1.2287674E-1,1.6781908E-1,7.394199E-2,3.1225411E-2,-3.915563E-2,3.634712E-2,-1.7933233E-2,4.0804106E-3,-2.4560144E-2,2.9082999E-2,3.5175064E-3,3.2650273E-2,-4.2780053E-2,-1.2983731E-2,2.4159854E-2,3.6670182E-2,-5.94937E-2,-5.1693108E-2,2.550715E-3],"split_indices":[26,27,10,6,16,2,23,2,24,16,2,4,15,5,28,0,0,0,0,0,0,0,0,0,0,0,0,0,0,0,0],"split_type":[0,0,0,0,0,0,0,0,0,0,0,0,0,0,0,0,0,0,0,0,0,0,0,0,0,0,0,0,0,0,0],"sum_hessian":[1.6144208E3,9.330749E2,6.813458E2,1.0750233E2,8.255726E2,5.1634985E2,1.6499603E2,1.652645E1,9.0975876E1,2.1542938E2,6.101432E2,2.4634995E1,4.9171484E2,4.764323E1,1.173528E2,5.0954247E0,1.14310255E1,8.3930046E1,7.045833E0,1.2998589E2,8.544349E1,6.687833E1,5.432649E2,2.248415E1,2.1508436E0,4.7283658E2,1.8878235E1,4.3999092E1,3.644138E0,1.4025702E1,1.03327095E2],"tree_param":{"num_deleted":"0","num_feature":"31","num_nodes":"31","size_leaf_vector":"1"}},{"base_weights":[1.3369733E-3,5.5905554E-2,-1.8740952E-1,6.272883E-1,3.5736695E-2,7.085814E-2,-2.066007E-1,-2.3960717E-1,9.8471296E-1,2.217726E-1,-1.1384823E-2,-2.4345116E-1,6.5576345E-1,3.7228175E-2,-6.027479E-2,5.8641344E-2,-2.4600074E-2,-3.0793538E-2,1.3351664E-2,-2.6291111E-2,6.471492E-4,-6.684707E-3,-2.6775539E-2,4.412813E-2,-5.2025672E-2],"categories":[],"categories_nodes":[],"categories_segments":[],"categories_sizes":[],"default_left":[0,0,0,0,0,0,0,0,0,0,0,0,0,0,0,0,0,0,0,0,0,0,0,0,0],"id":11,"left_children":[1,3,5,7,9,-1,11,13,15,17,19,21,23,-1,-1,-1,-1,-1,-1,-1,-1,-1,-1,-1,-1],"loss_changes":[1.6817095E1,1.4573832E1,1.1569067E1,1.3597742E1,1.0736477E1,0E0,1.1686787E1,1.3629552E1,9.11348E0,9.54828E0,1.2245898E1,1.1102911E1,6.7412834E0,0E0,0E0,0E0,0E0,0E0,0E0,0E0,0E0,0E0,0E0,0E0,0E0],"parents":[2147483647,0,0,1,1,2,2,3,3,4,4,6,6,7,7,8,8,9,9,10,10,11,11,12,12],"right_children":[2,4,6,8,10,-1,12,14,16,18,20,22,24,-1,-1,-1,-1,-1,-1,-1,-1,-1,-1,-1,-1],"split_conditions":[8.807389E-3,2.0757853E8,9.434789E-1,2.9823931E-2,-6.170606E-3,7.085814E-2,1.3740778E-1,-1.6781545E-3,7.9424724E-2,4.132623E7,2.0056183E-2,7.3094726E-2,-2.1613284E-3,3.7228175E-2,-6.027479E-2,5.8641344E-2,-2.4600074E-2,-3.0793538E-2,1.3351664E-2,-2.6291111E-2,6.471492E-4,-6.684707E-3,-2.6775539E-2,4.412813E-2,-5.2025672E-2],"split_indices":[19,0,4,14,23,0,9,23,17,11,8,9,22,0,0,0,0,0,0,0,0,0,0,0,0],"split_type":[0,0,0,0,0,0,0,0,0,0,0,0,0,0,0,0,0,0,0,0,0,0,0,0,0],"sum_hessian":[1.6307694E3,1.2655807E3,3.6518878E2,4.2123463E1,1.2234572E3,3.4552011E0,3.6173358E2,1.23936405E1,2.972982E1,2.4651375E2,9.769434E2,3.4759775E2,1.4135824E1,6.252221E0,6.14142E0,2.6553095E1,3.1767263E0,1.1990853E1,2.345229E2,4.318281E1,9.337606E2,2.537103E2,9.388746E1,1.2891839E1,1.2439853E0],"tree_param":{"num_deleted":"0","num_feature":"31","num_nodes":"25","size_leaf_vector":"1"}},{"base_weights":[-1.0393708E-2,1.6584066E-1,-7.399629E-2,2.7121276E-1,-1.00329734E-1,-2.2207428E-2,-3.471881E-1,-6.086966E-1,3.0894688E-1,-1.5632426E0,2.4361836E-2,3.2731348E-1,-5.4007124E-2,-4.3532878E-1,7.2731894E-1,3.4906086E-2,-5.7252295E-2,6.8271547E-3,2.489092E-2,-1.2430858E-2,-8.558225E-2,-2.002835E-2,1.3578531E-2,3.273666E-2,-1.745089E-2,-3.111958E-3,5.621434E-2,-7.465829E-2,-1.9001966E-2,5.1247746E-2,-5.7081826E-2],"categories":[],"categories_nodes":[],"categories_segments":[],"categories_sizes":[],"default_left":[0,0,0,0,0,0,0,0,0,0,0,0,0,0,0,0,0,0,0,0,0,0,0,0,0,0,0,0,0,0,0],"id":12,"left_children":[1,3,5,7,9,11,13,15,17,19,21,23,25,27,29,-1,-1,-1,-1,-1,-1,-1,-1,-1,-1,-1,-1,-1,-1,-1,-1],"loss_changes":[1.8126087E1,1.2055426E1,1.6802607E1,1.03979435E1,2.2357721E1,1.1130962E1,1.8242472E1,9.89818E0,9.554836E0,1.4523125E0,1.2055929E1,1.872462E1,8.968058E0,9.7000885E0,9.360319E0,0E0,0E0,0E0,0E0,0E0,0E0,0E0,0E0,0E0,0E0,0E0,0E0,0E0,0E0,0E0,0E0],"parents":[2147483647,0,0,1,1,2,2,3,3,4,4,5,5,6,6,7,7,8,8,9,9,10,10,11,11,12,12,13,13,14,14],"right_children":[2,4,6,8,10,12,14,16,18,20,22,24,26,28,30,-1,-1,-1,-1,-1,-1,-1,-1,-1,-1,-1,-1,-1,-1,-1,-1],"split_conditions":[3.4358787E8,7.574202E-3,1.9636603E-2,2.067084E-2,3.6415968E-2,3.7957475E-1,9.0003446E-2,-7.061595E-3,4.5148034E-2,3.7834683E-1,1.4680931E-2,3.7568364E-1,4.054827E0,2.3337223E-2,5.120994E-1,3.4906086E-2,-5.7252295E-2,6.8271547E-3,2.489092E-2,-1.2430858E-2,-8.558225E-2,-2.002835E-2,1.3578531E-2,3.273666E-2,-1.745089E-2,-3.111958E-3,5.621434E-2,-7.465829E-2,-1.9001966E-2,5.1247746E-2,-5.7081826E-2],"split_indices":[2,21,23,8,8,27,16,21,14,7,21,29,18,29,29,0,0,0,0,0,0,0,0,0,0,0,0,0,0,0,0],"split_type":[0,0,0,0,0,0,0,0,0,0,0,0,0,0,0,0,0,0,0,0,0,0,0,0,0,0,0,0,0,0,0],"sum_hessian":[1.615012E3,4.2786026E2,1.1871517E3,3.0650247E2,1.2135779E2,9.988764E2,1.8827533E2,1.1981389E1,2.9452106E2,8.625412E0,1.12732376E2,8.2524925E1,9.163515E2,1.7455188E2,1.37234535E1,3.398734E0,8.582654E0,1.5487373E2,1.3964732E2,1.1462878E0,7.479124E0,4.1234226E1,7.149815E1,5.562713E1,2.6897795E1,9.109345E2,5.4169736E0,7.378322E0,1.6717355E2,1.2227743E1,1.4957106E0],"tree_param":{"num_deleted":"0","num_feature":"31","num_nodes":"31","size_leaf_vector":"1"}},{"base_weights":[-9.746877E-3,2.6953816E-1,-4.4461403E-2,6.1699295E-1,3.182258E-2,-1.0977625E0,-3.1309657E-2,7.010205E-1,-1.0412766E0,1.9421998E-1,-7.2560453E-1,-1.314839E0,3.918915E-2,-1.5702917E-1,4.257694E-2,-3.5660427E-2,3.9825346E-2,-1.6329136E-2,-6.099969E-2,1.4694653E-2,-6.663692E-2,1.9261657E-3,-6.2524095E-2,-7.37878E-2,2.5565593E-2,-1.19228205E-2,7.222809E-3,2.5537524E-2,6.7719526E-4],"categories":[],"categories_nodes":[],"categories_segments":[],"categories_sizes":[],"default_left":[0,0,0,0,0,0,0,0,0,0,0,0,0,0,0,0,0,0,0,0,0,0,0,0,0,0,0,0,0],"id":13,"left_children":[1,3,5,7,9,11,13,15,17,19,21,23,-1,25,27,-1,-1,-1,-1,-1,-1,-1,-1,-1,-1,-1,-1,-1,-1],"loss_changes":[1.5616361E1,1.4688958E1,1.9808403E1,1.080253E1,1.3276839E1,8.233549E0,1.3157769E1,9.939686E0,9.82604E-2,1.3895604E1,7.694886E0,5.5105896E0,0E0,1.2905018E1,1.2124299E1,0E0,0E0,0E0,0E0,0E0,0E0,0E0,0E0,0E0,0E0,0E0,0E0,0E0,0E0],"parents":[2147483647,0,0,1,1,2,2,3,3,4,4,5,5,6,6,7,7,8,8,9,9,10,10,11,11,13,13,14,14],"right_children":[2,4,6,8,10,12,14,16,18,20,22,24,-1,26,28,-1,-1,-1,-1,-1,-1,-1,-1,-1,-1,-1,-1,-1,-1],"split_conditions":[5.3388444E7,7.482953E-1,1.8630376E8,8.458262E-3,3.0573371E-3,6.0177647E-2,5.008538E-1,2.7508375E-1,6.685657E-2,1.0876133E-1,1.0468126E-1,1.04549125E-1,3.918915E-2,2.6052667E-2,3.325737E-1,-3.5660427E-2,3.9825346E-2,-1.6329136E-2,-6.099969E-2,1.4694653E-2,-6.663692E-2,1.9261657E-3,-6.2524095E-2,-7.37878E-2,2.5565593E-2,-1.19228205E-2,7.222809E-3,2.5537524E-2,6.7719526E-4],"split_indices":[10,4,1,25,23,8,7,4,5,14,5,13,0,22,27,0,0,0,0,0,0,0,0,0,0,0,0,0,0],"split_type":[0,0,0,0,0,0,0,0,0,0,0,0,0,0,0,0,0,0,0,0,0,0,0,0,0,0,0,0,0],"sum_hessian":[1.608487E3,1.7708E2,1.4314071E3,7.128761E1,1.057924E2,1.6635418E1,1.4147717E3,6.839897E1,2.8886423E0,8.7726776E1,1.8065622E1,1.5184728E1,1.4506911E0,5.232782E2,8.9149347E2,3.9169285E0,6.448204E1,1.1434271E0,1.7452152E0,8.310929E1,4.617478E0,7.733553E0,1.0332069E1,1.4131374E1,1.0533533E0,4.1216647E2,1.11111725E2,5.1087505E1,8.40406E2],"tree_param":{"num_deleted":"0","num_feature":"31","num_nodes":"29","size_leaf_vector":"1"}},{"base_weights":[1.128134E-2,5.739321E-2,-2.1014541E-1,9.7100876E-2,-2.5518158E-1,-2.5382343E-1,6.481633E-1,1.0262137E-1,-7.3509924E-2,-3.407455E-1,1.0894989E0,-9.160022E-2,-5.9328735E-1,9.2858136E-1,-3.6424953E-2,2.339441E-3,1.2012627E-2,-4.739538E-2,-1.2104654E-2,7.468047E-2,-1.3084238E-3,-2.0591319E-2,4.576482E-3,-3.320693E-2,3.06287E-2,6.792537E-2,1.563628E-2],"categories":[],"categories_nodes":[],"categories_segments":[],"categories_sizes":[],"default_left":[0,0,0,0,0,0,0,0,0,0,0,0,0,0,0,0,0,0,0,0,0,0,0,0,0,0,0],"id":14,"left_children":[1,3,5,7,9,11,13,15,-1,17,19,21,23,25,-1,-1,-1,-1,-1,-1,-1,-1,-1,-1,-1,-1,-1],"loss_changes":[1.6534191E1,1.6656984E1,1.0628324E1,1.0444746E1,1.7781557E1,1.461149E1,6.002807E0,9.106106E0,0E0,8.337685E0,4.2279263E0,1.0674656E1,7.748642E0,2.7265139E0,0E0,0E0,0E0,0E0,0E0,0E0,0E0,0E0,0E0,0E0,0E0,0E0,0E0],"parents":[2147483647,0,0,1,1,2,2,3,3,4,4,5,5,6,6,7,7,9,9,10,10,11,11,12,12,13,13],"right_children":[2,4,6,8,10,12,14,16,-1,18,20,22,24,26,-1,-1,-1,-1,-1,-1,-1,-1,-1,-1,-1,-1,-1],"split_conditions":[5.938805E-2,1.2449755E8,1.3740778E-1,8.663149E-1,1.7953044E10,2.846941E-2,1.3718559E-1,7.797142E-2,-7.3509924E-2,4.5645568E-1,6.265403E-3,1.9608416E-1,2.8139016E9,2.561961E-1,-3.6424953E-2,2.339441E-3,1.2012627E-2,-4.739538E-2,-1.2104654E-2,7.468047E-2,-1.3084238E-3,-2.0591319E-2,4.576482E-3,-3.320693E-2,3.06287E-2,6.792537E-2,1.563628E-2],"split_indices":[15,11,15,29,2,19,6,16,0,7,21,29,0,29,0,0,0,0,0,0,0,0,0,0,0,0,0],"split_type":[0,0,0,0,0,0,0,0,0,0,0,0,0,0,0,0,0,0,0,0,0,0,0,0,0,0,0],"sum_hessian":[1.6171666E3,1.3390515E3,2.7811514E2,1.1887314E3,1.5032013E2,2.653178E2,1.2797336E1,1.1854902E3,3.2411249E0,1.420292E2,8.290925E0,1.803851E2,8.493269E1,1.0902122E1,1.8952141E0,8.443176E2,3.4117264E2,1.8648346E1,1.2338086E2,5.837677E0,2.4532483E0,6.517296E1,1.1521214E2,8.0643654E1,4.2890334E0,5.7100654E0,5.192056E0],"tree_param":{"num_deleted":"0","num_feature":"31","num_nodes":"27","size_leaf_vector":"1"}},{"base_weights":[-8.566967E-3,1.4432389E-1,-8.704757E-2,2.0919915E-1,-4.9607077E-1,-1.4097452E-1,1.11314915E-1,1.6737388E-1,7.5368035E-1,-8.5408944E-1,2.1439835E-1,-2.4643035E-1,-2.2433322E-2,2.2351082E-1,-4.6691072E-1,1.1166081E-2,-1.6528603E-2,-4.1122E-2,4.8306234E-2,-4.842743E-2,3.0501122E-2,-5.0549146E-2,2.5852213E-2,-8.2352E-3,-2.4194835E-2,7.4529573E-3,-1.389639E-2,-2.6012657E-3,2.7687842E-2,2.3957398E-2,-3.4671582E-2],"categories":[],"categories_nodes":[],"categories_segments":[],"categories_sizes":[],"default_left":[0,0,0,0,0,0,0,0,0,0,0,0,0,0,0,0,0,0,0,0,0,0,0,0,0,0,0,0,0,0,0],"id":15,"left_children":[1,3,5,7,9,11,13,15,17,19,21,23,25,27,29,-1,-1,-1,-1,-1,-1,-1,-1,-1,-1,-1,-1,-1,-1,-1,-1],"loss_changes":[1.956793E1,2.3086258E1,1.1542548E1,1.1328766E1,1.3201853E1,1.0591204E1,1.5083223E1,1.3123105E1,1.2713848E1,6.3276596E0,7.1792088E0,8.624449E0,1.7575481E1,1.768593E1,8.442325E0,0E0,0E0,0E0,0E0,0E0,0E0,0E0,0E0,0E0,0E0,0E0,0E0,0E0,0E0,0E0,0E0],"parents":[2147483647,0,0,1,1,2,2,3,3,4,4,5,5,6,6,7,7,8,8,9,9,10,10,11,11,12,12,13,13,14,14],"right_children":[2,4,6,8,10,12,14,16,18,20,22,24,26,28,30,-1,-1,-1,-1,-1,-1,-1,-1,-1,-1,-1,-1,-1,-1,-1,-1],"split_conditions":[9.4324064E8,8.299396E-3,1.1314792E9,6.7786016E-3,1.7239306E-2,3.3877183E-2,1.2335954E-1,9.361833E-3,8.160982E-2,1.5270121E-1,5.7109416E-1,1.9636603E-2,5.844323E-2,4.9828365E-1,4.2863697E-1,1.1166081E-2,-1.6528603E-2,-4.1122E-2,4.8306234E-2,-4.842743E-2,3.0501122E-2,-5.0549146E-2,2.5852213E-2,-8.2352E-3,-2.4194835E-2,7.4529573E-3,-1.389639E-2,-2.6012657E-3,2.7687842E-2,2.3957398E-2,-3.4671582E-2],"split_indices":[0,25,1,25,22,9,5,26,6,9,27,23,9,7,27,0,0,0,0,0,0,0,0,0,0,0,0,0,0,0,0],"split_type":[0,0,0,0,0,0,0,0,0,0,0,0,0,0,0,0,0,0,0,0,0,0,0,0,0,0,0,0,0,0,0],"sum_hessian":[1.6287543E3,5.521847E2,1.0765696E3,5.0200256E2,5.01821E1,8.4667993E2,2.2988968E2,4.6740543E2,3.459715E1,3.3233147E1,1.694895E1,4.4749954E2,3.9918042E2,1.9304556E2,3.6844105E1,4.206895E2,4.671592E1,3.7683685E0,3.0828781E1,3.1137407E1,2.0957398E0,2.8933995E0,1.4055552E1,3.3418134E2,1.133182E2,2.3910526E2,1.6007516E2,1.056993E2,8.734627E1,6.90216E0,2.9941946E1],"tree_param":{"num_deleted":"0","num_feature":"31","num_nodes":"31","size_leaf_vector":"1"}},{"base_weights":[1.5935479E-2,6.387164E-2,-2.1577436E-1,3.6391024E-2,4.8521084E-1,-1.197291E-1,-5.693958E-1,1.8327914E-1,-4.1128267E-2,5.5920815E-1,-6.786715E-2,4.4011983E-1,-1.9164763E-1,-1.2168857E0,-2.3689282E-1,6.255464E-3,3.551584E-2,-4.608795E-2,-1.0823901E-3,6.1857235E-2,1.8220402E-2,5.1541273E-3,6.102832E-2,-5.9839338E-2,-7.2227167E-3,-6.753353E-2,3.0573353E-2,-5.4422684E-2,-3.255886E-4],"categories":[],"categories_nodes":[],"categories_segments":[],"categories_sizes":[],"default_left":[0,0,0,0,0,0,0,0,0,0,0,0,0,0,0,0,0,0,0,0,0,0,0,0,0,0,0,0,0],"id":16,"left_children":[1,3,5,7,9,11,13,15,17,19,-1,21,23,25,27,-1,-1,-1,-1,-1,-1,-1,-1,-1,-1,-1,-1,-1,-1],"loss_changes":[1.8115597E1,1.5626661E1,9.427779E0,1.4462758E1,1.2027456E1,8.988191E0,1.2511347E1,1.3361121E1,1.4249176E1,1.0135828E1,0E0,6.5756893E0,9.155945E0,5.700865E0,7.942733E0,0E0,0E0,0E0,0E0,0E0,0E0,0E0,0E0,0E0,0E0,0E0,0E0,0E0,0E0],"parents":[2147483647,0,0,1,1,2,2,3,3,4,4,5,5,6,6,7,7,8,8,9,9,11,11,12,12,13,13,14,14],"right_children":[2,4,6,8,10,12,14,16,18,20,-1,22,24,26,28,-1,-1,-1,-1,-1,-1,-1,-1,-1,-1,-1,-1,-1,-1],"split_conditions":[5.938805E-2,5.0993785E-2,3.4650005E-3,9.394341E8,1.2855662E-2,1.11830635E-2,5.378897E-3,2.8423977E-1,3.607573E8,1.54896295E-2,-6.786715E-2,4.695611E-1,1.2409721E-2,1.6622866E8,3.520804E-1,6.255464E-3,3.551584E-2,-4.608795E-2,-1.0823901E-3,6.1857235E-2,1.8220402E-2,5.1541273E-3,6.102832E-2,-5.9839338E-2,-7.2227167E-3,-6.753353E-2,3.0573353E-2,-5.4422684E-2,-3.255886E-4],"split_indices":[9,9,20,0,24,14,20,6,1,8,0,28,14,11,7,0,0,0,0,0,0,0,0,0,0,0,0,0,0],"split_type":[0,0,0,0,0,0,0,0,0,0,0,0,0,0,0,0,0,0,0,0,0,0,0,0,0,0,0,0,0],"sum_hessian":[1.6287252E3,1.3501338E3,2.785915E2,1.2684868E3,8.164696E1,2.201392E2,5.8452274E1,4.3771475E2,8.3077203E2,7.916421E1,2.4827464E0,2.4477182E1,1.9566202E2,1.8929905E1,3.952237E1,3.9532013E2,4.239464E1,1.69774E1,8.137946E2,1.6475592E1,6.2688618E1,1.7885414E1,6.5917683E0,7.682309E0,1.879797E2,1.7882652E1,1.0472522E0,7.6225286E0,3.1899843E1],"tree_param":{"num_deleted":"0","num_feature":"31","num_nodes":"29","size_leaf_vector":"1"}},{"base_weights":[4.5382157E-3,7.3005337E-1,-5.4129697E-3,8.856724E-1,-5.222225E-2,3.220968E-2,-1.9076493E-1,1.2998197E0,-1.7686997E-1,-1.8570457E-2,2.8540513E-1,7.2262645E-1,-2.4791454E-1,7.87872E-3,6.970848E-2,5.249953E-2,-6.047369E-2,-5.607701E-2,-4.0120538E-4,1.8880395E-2,-1.9385323E-2,5.324408E-2,-1.2452568E-2,-2.2200126E-2,-1.4218652E-3],"categories":[],"categories_nodes":[],"categories_segments":[],"categories_sizes":[],"default_left":[0,0,0,0,0,0,0,0,0,0,0,0,0,0,0,0,0,0,0,0,0,0,0,0,0],"id":17,"left_children":[1,3,5,7,-1,9,11,13,15,17,19,21,23,-1,-1,-1,-1,-1,-1,-1,-1,-1,-1,-1,-1],"loss_changes":[1.1782291E1,7.02262E0,1.1235655E1,9.401337E0,0E0,1.722729E1,1.4370029E1,1.40942E0,9.790157E0,1.298018E1,1.4037546E1,5.6738234E0,1.103031E1,0E0,0E0,0E0,0E0,0E0,0E0,0E0,0E0,0E0,0E0,0E0,0E0],"parents":[2147483647,0,0,1,1,2,2,3,3,5,5,6,6,7,7,8,8,9,9,10,10,11,11,12,12],"right_children":[2,4,6,8,-1,10,12,14,16,18,20,22,24,-1,-1,-1,-1,-1,-1,-1,-1,-1,-1,-1,-1],"split_conditions":[2.5524408E-1,2.0963831E-3,5.938805E-2,1.15873724E-1,-5.222225E-2,4.1499E-2,5.3135663E-2,3.3682394E8,8.202265E8,3.5618445E-1,3.6681798E0,4.853002E-1,8.829839E-2,7.87872E-3,6.970848E-2,5.249953E-2,-6.047369E-2,-5.607701E-2,-4.0120538E-4,1.8880395E-2,-1.9385323E-2,5.324408E-2,-1.2452568E-2,-2.2200126E-2,-1.4218652E-3],"split_indices":[27,20,9,5,0,9,6,1,0,3,18,29,5,0,0,0,0,0,0,0,0,0,0,0,0],"split_type":[0,0,0,0,0,0,0,0,0,0,0,0,0,0,0,0,0,0,0,0,0,0,0,0,0],"sum_hessian":[1.6304088E3,2.1081043E1,1.6093278E3,1.9841852E1,1.239192E0,1.3384717E3,2.7085608E2,1.4116392E1,5.725459E0,1.1156473E3,2.228243E2,1.5263489E1,2.555926E2,1.2807786E0,1.2835614E1,2.6089125E0,3.1165466E0,9.568799E0,1.1060785E3,1.9636522E2,2.645907E1,1.12167E1,4.0467896E0,1.3444878E2,1.2114382E2],"tree_param":{"num_deleted":"0","num_feature":"31","num_nodes":"25","size_leaf_vector":"1"}},{"base_weights":[3.2738894E-3,4.5655575E-2,-2.0452157E-1,-2.4839788E-4,2.5491458E-1,-2.6557595E-1,4.793564E-1,-9.053175E-3,1.2486237E0,-8.0016576E-2,2.9493147E-1,-4.0572834E-1,-1.3182313E-2,1.3865195E-1,8.287632E-2,1.812991E-2,-1.8377027E-3,7.767766E-2,1.1402477E-3,1.665461E-2,-4.321538E-2,3.4039628E-2,-2.2596585E-2,2.2138296E-2,-2.2968082E-2,-5.299103E-2,2.469851E-2],"categories":[],"categories_nodes":[],"categories_segments":[],"categories_sizes":[],"default_left":[0,0,0,0,0,0,0,0,0,0,0,0,0,0,0,0,0,0,0,0,0,0,0,0,0,0,0],"id":18,"left_children":[1,3,5,7,9,11,13,15,17,-1,19,21,23,25,-1,-1,-1,-1,-1,-1,-1,-1,-1,-1,-1,-1,-1],"loss_changes":[1.4210246E1,1.2873358E1,1.1540779E1,1.2107608E1,1.837122E1,8.894354E0,8.906362E0,1.1269455E1,2.84593E0,0E0,1.0765512E1,8.426731E0,1.8687563E1,8.506375E0,0E0,0E0,0E0,0E0,0E0,0E0,0E0,0E0,0E0,0E0,0E0,0E0,0E0],"parents":[2147483647,0,0,1,1,2,2,3,3,4,4,5,5,6,6,7,7,8,8,10,10,11,11,12,12,13,13],"right_children":[2,4,6,8,10,12,14,16,18,-1,20,22,24,26,-1,-1,-1,-1,-1,-1,-1,-1,-1,-1,-1,-1,-1],"split_conditions":[5.938805E-2,4.038885E-2,1.3029142E-1,8.4619624E10,3.7632845E-3,5.0999516E-1,4.88706E-1,3.3141559E-3,1.3510637E0,-8.0016576E-2,2.214985E9,5.1596346E-3,1.1309631E0,1.3740778E-1,8.287632E-2,1.812991E-2,-1.8377027E-3,7.767766E-2,1.1402477E-3,1.665461E-2,-4.321538E-2,3.4039628E-2,-2.2596585E-2,2.2138296E-2,-2.2968082E-2,-5.299103E-2,2.469851E-2],"split_indices":[9,9,9,0,26,7,7,26,27,0,1,14,3,9,0,0,0,0,0,0,0,0,0,0,0,0,0],"split_type":[0,0,0,0,0,0,0,0,0,0,0,0,0,0,0,0,0,0,0,0,0,0,0,0,0,0,0],"sum_hessian":[1.6115079E3,1.3391558E3,2.7235214E2,1.0990599E3,2.400958E2,2.505918E2,2.1760345E1,1.0923514E3,6.708527E0,4.2461486E0,2.3584964E2,1.6073131E2,8.986048E1,1.7746174E1,4.014173E0,7.493183E1,1.0174196E3,5.1580677E0,1.5504594E0,2.2902315E2,6.826502E0,5.9959307E0,1.5473538E2,4.4447487E1,4.5413E1,3.604756E0,1.4141417E1],"tree_param":{"num_deleted":"0","num_feature":"31","num_nodes":"27","size_leaf_vector":"1"}},{"base_weights":[1.0204423E-3,4.7095895E-2,-1.1756796E-1,-3.4879554E-2,1.4867117E-1,8.618776E-2,-2.1991387E-1,-2.6566845E-1,3.1805303E-2,3.744188E-1,1.4972449E-2,-3.40512E-1,2.770472E-1,-4.497119E-1,4.3960414E-3,-2.1475306E-2,1.0635478E-2,-1.9579434E-3,1.6025117E-2,-5.3971573E-3,2.5155563E-2,-3.3410396E-2,3.8727166E-3,2.1000717E-2,-2.7667021E-2,2.0815713E-2,-2.2140596E-2,4.62795E-3,-2.972329E-2,-6.4463764E-3,3.908455E-2],"categories":[],"categories_nodes":[],"categories_segments":[],"categories_sizes":[],"default_left":[0,0,0,0,0,0,0,0,0,0,0,0,0,0,0,0,0,0,0,0,0,0,0,0,0,0,0,0,0,0,0],"id":19,"left_children":[1,3,5,7,9,11,13,15,17,19,21,23,25,27,29,-1,-1,-1,-1,-1,-1,-1,-1,-1,-1,-1,-1,-1,-1,-1,-1],"loss_changes":[8.892922E0,9.765022E0,9.515959E0,1.0003541E1,1.5799833E1,1.2553577E1,1.5642401E1,1.1510335E1,1.0353525E1,1.2143084E1,1.413517E1,7.958073E0,1.0836928E1,1.1820721E1,1.6115736E1,0E0,0E0,0E0,0E0,0E0,0E0,0E0,0E0,0E0,0E0,0E0,0E0,0E0,0E0,0E0,0E0],"parents":[2147483647,0,0,1,1,2,2,3,3,4,4,5,5,6,6,7,7,8,8,9,9,10,10,11,11,12,12,13,13,14,14],"right_children":[2,4,6,8,10,12,14,16,18,20,22,24,26,28,30,-1,-1,-1,-1,-1,-1,-1,-1,-1,-1,-1,-1,-1,-1,-1,-1],"split_conditions":[1.1720418E0,2.2140242E-1,-9.207172E-3,1.8276762E-2,4.1347315E8,3.1868515E8,6.3688955E-3,1.1512403E9,5.850135E-1,3.3954136E-2,3.9926163E8,1.266007E8,3.0969788E-4,6.114795E7,5.9664726E-1,-2.1475306E-2,1.0635478E-2,-1.9579434E-3,1.6025117E-2,-5.3971573E-3,2.5155563E-2,-3.3410396E-2,3.8727166E-3,2.1000717E-2,-2.7667021E-2,2.0815713E-2,-2.2140596E-2,4.62795E-3,-2.972329E-2,-6.4463764E-3,3.908455E-2],"split_indices":[27,6,23,9,2,1,22,1,7,8,1,1,21,11,7,0,0,0,0,0,0,0,0,0,0,0,0,0,0,0,0],"split_type":[0,0,0,0,0,0,0,0,0,0,0,0,0,0,0,0,0,0,0,0,0,0,0,0,0,0,0,0,0,0,0],"sum_hessian":[1.6255305E3,1.1711165E3,4.5441397E2,6.484484E2,5.226681E2,1.5198734E2,3.0242664E2,1.4469414E2,5.0375427E2,1.9374055E2,3.2892752E2,4.6730038E1,1.052573E2,1.4888947E2,1.5353717E2,1.0785685E2,3.6837284E1,4.0505313E2,9.870112E1,4.083711E1,1.5290344E2,2.6749754E1,3.0217776E2,1.0004876E1,3.672516E1,8.854807E1,1.6709225E1,3.14465E1,1.1744297E2,1.3176982E2,2.1767355E1],"tree_param":{"num_deleted":"0","num_feature":"31","num_nodes":"31","size_leaf_vector":"1"}},{"base_weights":[9.371677E-3,1.5361205E-2,-1.237381E0,-4.4406388E-2,1.3141093E-1,-9.222799E-3,-7.909866E-2,1.9670771E-2,-1.8109927E-1,2.9205498E-1,-2.114987E-2,-2.7411813E-3,9.271556E-3,-7.1841764E-4,-2.0197598E-2,-1.6445264E-2,1.7393315E-2,3.382653E-2,-3.7900654E-3],"categories":[],"categories_nodes":[],"categories_segments":[],"categories_sizes":[],"default_left":[0,0,0,0,0,0,0,0,0,0,0,0,0,0,0,0,0,0,0],"id":20,"left_children":[1,3,5,7,9,-1,-1,11,13,15,17,-1,-1,-1,-1,-1,-1,-1,-1],"loss_changes":[1.2092671E1,1.1173473E1,2.5174322E0,9.31868E0,1.3426517E1,0E0,0E0,8.962394E0,1.26096525E1,9.36068E0,1.0795868E1,0E0,0E0,0E0,0E0,0E0,0E0,0E0,0E0],"parents":[2147483647,0,0,1,1,2,2,3,3,4,4,7,7,8,8,9,9,10,10],"right_children":[2,4,6,8,10,-1,-1,12,14,16,18,-1,-1,-1,-1,-1,-1,-1,-1],"split_conditions":[8.663149E-1,7.11223E-2,-4.4980555E-4,1.02512315E-2,2.4006195E-1,-9.222799E-3,-7.909866E-2,4.2263072E-2,4.4974137E-2,1.742019E-2,3.1704128E8,-2.7411813E-3,9.271556E-3,-7.1841764E-4,-2.0197598E-2,-1.6445264E-2,1.7393315E-2,3.382653E-2,-3.7900654E-3],"split_indices":[29,16,20,26,29,0,0,9,8,8,0,0,0,0,0,0,0,0,0],"split_type":[0,0,0,0,0,0,0,0,0,0,0,0,0,0,0,0,0,0,0],"sum_hessian":[1.6158373E3,1.6090947E3,6.7425766E0,1.0625042E3,5.4659045E2,2.0411103E0,4.701466E0,7.2398145E2,3.3852277E2,2.657966E2,2.8079388E2,4.9996243E2,2.24019E2,1.9425339E2,1.442694E2,2.1515917E1,2.4428069E2,1.9571028E1,2.6122284E2],"tree_param":{"num_deleted":"0","num_feature":"31","num_nodes":"19","size_leaf_vector":"1"}},{"base_weights":[-1.22858705E-2,7.305502E-1,-2.1619482E-2,9.2182225E-1,-3.6411766E-2,-3.0044543E-2,6.247095E-1,1.1918467E0,-3.6629146E-1,-2.33956E-2,-9.801175E-1,-7.863373E-1,9.6428E-1,6.4043425E-2,6.1824224E-3,1.97488E-2,-5.5451255E-2,9.620476E-3,-2.46159E-3,1.5675092E-2,-6.484481E-2,-6.391731E-2,1.2303056E-2,5.8535684E-2,1.3645913E-3],"categories":[],"categories_nodes":[],"categories_segments":[],"categories_sizes":[],"default_left":[0,0,0,0,0,0,0,0,0,0,0,0,0,0,0,0,0,0,0,0,0,0,0,0,0],"id":21,"left_children":[1,3,5,7,-1,9,11,13,15,17,19,21,23,-1,-1,-1,-1,-1,-1,-1,-1,-1,-1,-1,-1],"loss_changes":[1.1187879E1,6.258478E0,8.689593E0,6.7474937E0,0E0,9.912396E0,1.0597714E1,1.2903461E0,2.6484218E0,8.723503E0,4.8757744E0,2.6176357E0,3.2565145E0,0E0,0E0,0E0,0E0,0E0,0E0,0E0,0E0,0E0,0E0,0E0,0E0],"parents":[2147483647,0,0,1,1,2,2,3,3,5,5,6,6,7,7,8,8,9,9,10,10,11,11,12,12],"right_children":[2,4,6,8,-1,10,12,14,16,18,20,22,24,-1,-1,-1,-1,-1,-1,-1,-1,-1,-1,-1,-1],"split_conditions":[2.5524408E-1,1.5130665E-3,1.3412325E-1,8.589103E-2,-3.6411766E-2,8.339908E-1,5.3664967E-2,5.3835803E-1,7.584825E-1,1.4801869E-3,1.0581382E-2,3.9793167E-1,1.131594E-1,6.4043425E-2,6.1824224E-3,1.97488E-2,-5.5451255E-2,9.620476E-3,-2.46159E-3,1.5675092E-2,-6.484481E-2,-6.391731E-2,1.2303056E-2,5.8535684E-2,1.3645913E-3],"split_indices":[27,20,13,17,0,29,14,28,4,24,17,29,8,0,0,0,0,0,0,0,0,0,0,0,0],"split_type":[0,0,0,0,0,0,0,0,0,0,0,0,0,0,0,0,0,0,0,0,0,0,0,0,0],"sum_hessian":[1.6103561E3,1.9023928E1,1.5913322E3,1.7144125E1,1.8798025E0,1.5717969E3,1.9535255E1,1.423484E1,2.909284E0,1.5618909E3,9.906033E0,3.5340848E0,1.6001171E1,1.2956018E1,1.2788221E0,1.6679382E0,1.2413459E0,1.6630745E2,1.3955835E3,1.950634E0,7.9553986E0,2.232104E0,1.3019806E0,1.2907907E1,3.0932636E0],"tree_param":{"num_deleted":"0","num_feature":"31","num_nodes":"25","size_leaf_vector":"1"}},{"base_weights":[-1.2868847E-2,1.8410793E-2,-3.3639142E-1,4.893545E-1,4.0746345E-3,6.1046374E-1,-4.685483E-1,6.174191E-1,-6.485595E-2,4.227363E-2,-1.8634337E-1,8.0034244E-1,-5.2839447E-2,-1.1642298E0,-2.6707464E-1,-3.9625198E-2,3.7443396E-2,5.8802805E-4,1.7601704E-2,4.1924994E-2,-1.183317E-2,7.065215E-2,2.201443E-2,-6.975999E-2,2.1976113E-2,-3.206059E-2,-1.1328656E-3],"categories":[],"categories_nodes":[],"categories_segments":[],"categories_sizes":[],"default_left":[0,0,0,0,0,0,0,0,0,0,0,0,0,0,0,0,0,0,0,0,0,0,0,0,0,0,0],"id":22,"left_children":[1,3,5,7,9,11,13,15,-1,17,19,21,-1,23,25,-1,-1,-1,-1,-1,-1,-1,-1,-1,-1,-1,-1],"loss_changes":[1.6229874E1,9.874086E0,1.7978617E1,1.0685594E1,1.0340915E1,6.4655147E0,1.7158533E1,8.190814E0,0E0,1.1187105E1,1.2448778E1,3.019086E0,0E0,1.0870941E1,8.942196E0,0E0,0E0,0E0,0E0,0E0,0E0,0E0,0E0,0E0,0E0,0E0,0E0],"parents":[2147483647,0,0,1,1,2,2,3,3,4,4,5,5,6,6,7,7,9,9,10,10,11,11,13,13,14,14],"right_children":[2,4,6,8,10,12,14,16,-1,18,20,22,-1,24,26,-1,-1,-1,-1,-1,-1,-1,-1,-1,-1,-1,-1],"split_conditions":[6.136083E-1,3.0754742E-1,2.143399E-3,2.0963831E-3,5.938805E-2,9.510453E-2,6.584195E-1,2.0356402E-1,-6.485595E-2,5.120994E-1,-4.5523718E-2,2.4559507E-1,-5.2839447E-2,1.01170994E-1,4.758847E-3,-3.9625198E-2,3.7443396E-2,5.8802805E-4,1.7601704E-2,4.1924994E-2,-1.183317E-2,7.065215E-2,2.201443E-2,-6.975999E-2,2.1976113E-2,-3.206059E-2,-1.1328656E-3],"split_indices":[29,27,25,20,9,17,29,30,0,29,21,6,0,17,25,0,0,0,0,0,0,0,0,0,0,0,0],"split_type":[0,0,0,0,0,0,0,0,0,0,0,0,0,0,0,0,0,0,0,0,0,0,0,0,0,0,0],"sum_hessian":[1.6021829E3,1.4617931E3,1.4038974E2,4.2205498E1,1.4195876E3,1.6751587E1,1.2363815E2,3.9992966E1,2.2125318E0,1.1830405E3,2.3654704E2,1.5505655E1,1.2459323E0,2.6692236E1,9.6945915E1,2.9817405E0,3.7011227E1,1.0778997E3,1.0514093E2,1.0337848E1,2.2620918E2,4.656758E0,1.0848897E1,2.3445665E1,3.24657E0,3.766599E1,5.9279926E1],"tree_param":{"num_deleted":"0","num_feature":"31","num_nodes":"27","size_leaf_vector":"1"}},{"base_weights":[-6.7605563E-3,2.4714528E-1,-3.7270676E-2,3.822144E-1,-3.62718E-1,4.7842604E-3,-2.5005114E-1,6.22623E-1,1.08846694E-1,-1.3458571E0,7.412804E-2,-6.8084456E-2,1.3344301E-1,-3.2465383E-1,5.9013003E-1,4.8604044E-3,4.4722132E-2,9.861238E-3,-7.379139E-2,-4.9297363E-3,-8.045672E-2,-4.0983763E-2,2.4699159E-2,-1.4809693E-2,-8.376019E-4,7.6965797E-3,-5.193546E-2,6.139088E-3,-2.1951435E-2,8.958939E-3,8.324256E-2],"categories":[],"categories_nodes":[],"categories_segments":[],"categories_sizes":[],"default_left":[0,0,0,0,0,0,0,0,0,0,0,0,0,0,0,0,0,0,0,0,0,0,0,0,0,0,0,0,0,0,0],"id":23,"left_children":[1,3,5,7,9,11,13,15,17,19,21,23,25,27,29,-1,-1,-1,-1,-1,-1,-1,-1,-1,-1,-1,-1,-1,-1,-1,-1],"loss_changes":[1.2618358E1,1.4532363E1,1.3011762E1,9.365742E0,1.3927284E1,1.1399795E1,1.5232223E1,1.0790483E1,9.867477E0,3.110983E0,9.125728E0,9.085395E0,1.07185E1,1.1365492E1,8.501365E0,0E0,0E0,0E0,0E0,0E0,0E0,0E0,0E0,0E0,0E0,0E0,0E0,0E0,0E0,0E0,0E0],"parents":[2147483647,0,0,1,1,2,2,3,3,4,4,5,5,6,6,7,7,8,8,9,9,10,10,11,11,12,12,13,13,14,14],"right_children":[2,4,6,8,10,12,14,16,18,20,22,24,26,28,30,-1,-1,-1,-1,-1,-1,-1,-1,-1,-1,-1,-1,-1,-1,-1,-1],"split_conditions":[5.3388444E7,8.040044E-3,5.938805E-2,4.8721574E-2,7.606576E-3,3.284839E-2,1.2287674E-1,2.926388E-3,1.0650912E-1,1.3121249E-2,5.4716177E-2,2.8725808E-2,1.0650912E-1,2.7011013E0,2.488618E-2,4.8604044E-3,4.4722132E-2,9.861238E-3,-7.379139E-2,-4.9297363E-3,-8.045672E-2,-4.0983763E-2,2.4699159E-2,-1.4809693E-2,-8.376019E-4,7.6965797E-3,-5.193546E-2,6.139088E-3,-2.1951435E-2,8.958939E-3,8.324256E-2],"split_indices":[10,25,9,17,24,9,9,25,8,14,16,8,8,18,26,0,0,0,0,0,0,0,0,0,0,0,0,0,0,0,0],"split_type":[0,0,0,0,0,0,0,0,0,0,0,0,0,0,0,0,0,0,0,0,0,0,0,0,0,0,0,0,0,0,0],"sum_hessian":[1.6266802E3,1.73737E2,1.4529432E3,1.4254108E2,3.119592E1,1.2139833E3,2.389599E2,7.51628E1,6.7378265E1,8.956997E0,2.2238926E1,7.753293E2,4.38654E2,2.2003574E2,1.8924173E1,2.6089878E1,4.907293E1,6.464834E1,2.7299268E0,1.8007107E0,7.156286E0,6.8033724E0,1.5435553E1,1.4154883E2,6.3378046E2,4.3197205E2,6.6819596E0,4.4780483E1,1.7525525E2,1.453356E1,4.3906126E0],"tree_param":{"num_deleted":"0","num_feature":"31","num_nodes":"31","size_leaf_vector":"1"}},{"base_weights":[-4.422229E-4,-1.16757825E-1,7.036973E-2,-7.7770543E-3,-2.6569453E-1,1.8525328E-1,-3.0979555E-2,-6.6582926E-2,5.5972743E-1,7.0557946E-1,-3.2088605E-1,7.568544E-1,1.3270468E-1,4.6197912E-1,-1.0455528E-1,-3.9159216E-2,-7.5986603E-4,1.071661E-2,6.4483926E-2,-5.384792E-2,4.79124E-2,-2.7670402E-3,-2.6497275E-2,-1.7670896E-2,4.5893755E-2,-5.616985E-3,1.0500264E-2,-1.845858E-2,3.383104E-2,2.687567E-2,-7.4254456E-3],"categories":[],"categories_nodes":[],"categories_segments":[],"categories_sizes":[],"default_left":[0,0,0,0,0,0,0,0,0,0,0,0,0,0,0,0,0,0,0,0,0,0,0,0,0,0,0,0,0,0,0],"id":24,"left_children":[1,3,5,7,9,11,13,15,17,19,21,23,25,27,29,-1,-1,-1,-1,-1,-1,-1,-1,-1,-1,-1,-1,-1,-1,-1,-1],"loss_changes":[1.3308675E1,9.922459E0,1.1699946E1,1.1855007E1,1.4074524E1,1.4043737E1,1.9433498E1,1.1836264E1,8.133114E0,7.4287567E0,1.3578907E1,7.3741074E0,8.215306E0,1.2665756E1,1.3227421E1,0E0,0E0,0E0,0E0,0E0,0E0,0E0,0E0,0E0,0E0,0E0,0E0,0E0,0E0,0E0,0E0],"parents":[2147483647,0,0,1,1,2,2,3,3,4,4,5,5,6,6,7,7,8,8,9,9,10,10,11,11,12,12,13,13,14,14],"right_children":[2,4,6,8,10,12,14,16,18,20,22,24,26,28,30,-1,-1,-1,-1,-1,-1,-1,-1,-1,-1,-1,-1,-1,-1,-1,-1],"split_conditions":[4.9929455E-1,3.4026325E0,7.918906E-1,6.4134635E-2,2.1808013E-2,1.1423427E0,1.290525E-3,6.8812156E-3,1.1314792E9,-1.0693931E-1,-1.7014784E-3,2.4087999E-2,1.8275443E-2,-5.422041E-3,3.3434837E-3,-3.9159216E-2,-7.5986603E-4,1.071661E-2,6.4483926E-2,-5.384792E-2,4.79124E-2,-2.7670402E-3,-2.6497275E-2,-1.7670896E-2,4.5893755E-2,-5.616985E-3,1.0500264E-2,-1.845858E-2,3.383104E-2,2.687567E-2,-7.4254456E-3],"split_indices":[7,18,4,23,5,3,24,17,1,23,21,8,14,19,17,0,0,0,0,0,0,0,0,0,0,0,0,0,0,0,0],"split_type":[0,0,0,0,0,0,0,0,0,0,0,0,0,0,0,0,0,0,0,0,0,0,0,0,0,0,0,0,0,0,0],"sum_hessian":[1.6138125E3,6.1044604E2,1.0033665E3,3.5311502E2,2.57331E2,4.698943E2,5.334722E2,3.2075995E2,3.2355072E1,1.3202683E1,2.4412831E2,3.8433056E1,4.3146124E2,6.859637E1,4.6487585E2,2.0509003E1,3.0025095E2,2.2840923E1,9.514149E0,1.2340822E0,1.1968601E1,1.080936E2,1.3603471E2,4.716551E0,3.3716503E1,1.0335876E2,3.2810248E2,1.39311695E1,5.46652E1,2.906526E1,4.358106E2],"tree_param":{"num_deleted":"0","num_feature":"31","num_nodes":"31","size_leaf_vector":"1"}},{"base_weights":[-5.878226E-3,-1.5250636E-2,8.754759E-1,-7.4492316E-3,-1.0081961E0,1.4321718E0,1.5590437E-1,-1.0324232E-1,6.428182E-2,-1.4872962E0,-1.9499989E-1,7.9055816E-2,2.3878315E-2,-5.124221E-1,5.8867704E-2,4.8035223E-2,-5.9906226E-3,6.5023624E-3,-1.0727442E-2,-8.3270475E-2,-1.2719913E-2,-3.772242E-2,5.2176595E-2,-4.1905385E-2,2.4824051E-2],"categories":[],"categories_nodes":[],"categories_segments":[],"categories_sizes":[],"default_left":[0,0,0,0,0,0,0,0,0,0,0,0,0,0,0,0,0,0,0,0,0,0,0,0,0],"id":25,"left_children":[1,3,5,7,9,11,13,15,17,19,21,-1,-1,23,-1,-1,-1,-1,-1,-1,-1,-1,-1,-1,-1],"loss_changes":[1.3259537E1,1.2291278E1,6.5426645E0,1.083803E1,4.5291567E0,5.8153915E-1,6.3987823E0,1.2021086E1,1.6567871E1,1.2524471E0,4.7622185E0,0E0,0E0,2.3312874E0,0E0,0E0,0E0,0E0,0E0,0E0,0E0,0E0,0E0,0E0,0E0],"parents":[2147483647,0,0,1,1,2,2,3,3,4,4,5,5,6,6,7,7,8,8,9,9,10,10,13,13],"right_children":[2,4,6,8,10,12,14,16,18,20,22,-1,-1,24,-1,-1,-1,-1,-1,-1,-1,-1,-1,-1,-1],"split_conditions":[3.112767E9,3.2754278E9,8.023832E-3,5.155392E-1,8.3769135E-2,5.1650414E-3,9.5116E-3,1.7846608E-1,4.958825E-3,2.2448845E-2,1.6687368E-1,7.9055816E-2,2.3878315E-2,4.8252265E-3,5.8867704E-2,4.8035223E-2,-5.9906226E-3,6.5023624E-3,-1.0727442E-2,-8.3270475E-2,-1.2719913E-2,-3.772242E-2,5.2176595E-2,-4.1905385E-2,2.4824051E-2],"split_indices":[10,1,26,7,14,25,26,3,24,23,6,0,0,19,0,0,0,0,0,0,0,0,0,0,0],"split_type":[0,0,0,0,0,0,0,0,0,0,0,0,0,0,0,0,0,0,0,0,0,0,0,0,0],"sum_hessian":[1.6025743E3,1.5866841E3,1.5890266E1,1.5753146E3,1.1369478E1,8.400734E0,7.489533E0,6.7433545E2,9.009792E2,6.63278E0,4.7366977E0,6.6991754E0,1.701558E0,4.8285737E0,2.660959E0,9.4674015E0,6.6486804E2,7.29461E2,1.715182E2,5.488992E0,1.143788E0,3.532093E0,1.2046045E0,3.7782116E0,1.0503622E0],"tree_param":{"num_deleted":"0","num_feature":"31","num_nodes":"25","size_leaf_vector":"1"}},{"base_weights":[-6.2471395E-3,-1.44770695E-2,7.8201205E-1,-3.4823802E-3,-9.0363455E-1,1.4762563E0,2.1656917E-2,2.0118345E-2,-2.6673004E-1,1.3682239E-1,-1.1590986E0,2.5572613E-2,7.921558E-2,9.2493963E-1,-5.6190693E-1,7.272407E-4,5.4730292E-2,-3.6042444E-2,-5.2392073E-3,-4.2176552E-2,6.330085E-2,-6.995984E-2,1.829128E-2,1.2124588E-2,5.867047E-2,-7.0256695E-2,2.0622082E-2],"categories":[],"categories_nodes":[],"categories_segments":[],"categories_sizes":[],"default_left":[0,0,0,0,0,0,0,0,0,0,0,0,0,0,0,0,0,0,0,0,0,0,0,0,0,0,0],"id":26,"left_children":[1,3,5,7,9,11,13,15,17,19,21,-1,-1,23,25,-1,-1,-1,-1,-1,-1,-1,-1,-1,-1,-1,-1],"loss_changes":[1.0490422E1,1.563468E1,8.788191E0,9.828343E0,5.350772E0,9.8703384E-2,5.2583733E0,8.679196E0,9.496402E0,6.3208914E0,6.292717E0,0E0,0E0,3.7782407E-1,5.577659E0,0E0,0E0,0E0,0E0,0E0,0E0,0E0,0E0,0E0,0E0,0E0,0E0],"parents":[2147483647,0,0,1,1,2,2,3,3,4,4,5,5,6,6,7,7,8,8,9,9,10,10,13,13,14,14],"right_children":[2,4,6,8,10,12,14,16,18,20,22,-1,-1,24,26,-1,-1,-1,-1,-1,-1,-1,-1,-1,-1,-1,-1],"split_conditions":[3.112767E9,2.8564936E9,8.023832E-3,3.1244436E-2,3.7974615E9,6.4214003E-1,7.088118E-4,3.5146216E-1,5.66712E-2,7.6813944E7,4.5113494E-3,2.5572613E-2,7.921558E-2,-3.925889E-3,4.6566916E-3,7.272407E-4,5.4730292E-2,-3.6042444E-2,-5.2392073E-3,-4.2176552E-2,6.330085E-2,-6.995984E-2,1.829128E-2,1.2124588E-2,5.867047E-2,-7.0256695E-2,2.0622082E-2],"split_indices":[10,1,26,19,0,27,23,6,17,11,20,0,0,20,24,0,0,0,0,0,0,0,0,0,0,0,0],"split_type":[0,0,0,0,0,0,0,0,0,0,0,0,0,0,0,0,0,0,0,0,0,0,0,0,0,0,0],"sum_hessian":[1.6143212E3,1.5986123E3,1.57088995E1,1.5800781E3,1.8534206E1,7.719268E0,7.989632E0,1.4509232E3,1.2915485E2,3.7451863E0,1.478902E1,1.3548986E0,6.3643694E0,2.9062076E0,5.0834246E0,1.4444442E3,6.479016E0,3.3043922E1,9.611093E1,2.1401303E0,1.605056E0,1.2848485E1,1.9405354E0,1.3030865E0,1.6031212E0,2.4880629E0,2.5953615E0],"tree_param":{"num_deleted":"0","num_feature":"31","num_nodes":"27","size_leaf_vector":"1"}},{"base_weights":[1.5240947E-3,-4.015028E-3,9.7823393E-1,-6.993915E-2,7.0503205E-2,7.078059E-2,-1.9146904E-2,1.351322E-1,-1.4437924E-1,2.493061E-1,-3.7979495E-2,4.0211916E-2,3.1851397E-3,-1.0258562E-2,5.23061E-3,1.987429E-2,-6.4333057E-4,3.245121E-2,-3.912715E-3],"categories":[],"categories_nodes":[],"categories_segments":[],"categories_sizes":[],"default_left":[0,0,0,0,0,0,0,0,0,0,0,0,0,0,0,0,0,0,0],"id":27,"left_children":[1,3,5,7,9,-1,-1,11,13,15,17,-1,-1,-1,-1,-1,-1,-1,-1],"loss_changes":[8.770815E0,7.9255314E0,5.984891E0,1.3086706E1,1.4699345E1,0E0,0E0,1.0869022E1,9.534971E0,1.1120045E1,1.3116562E1,0E0,0E0,0E0,0E0,0E0,0E0,0E0,0E0],"parents":[2147483647,0,0,1,1,2,2,3,3,4,4,7,7,8,8,9,9,10,10],"right_children":[2,4,6,8,10,-1,-1,12,14,16,18,-1,-1,-1,-1,-1,-1,-1,-1],"split_conditions":[1.7953044E10,2.1694362E-1,1.4361878E-1,-5.952175E-3,4.2018006E8,7.078059E-2,-1.9146904E-2,4.875605E7,1.4544606E8,9.642905E-1,5.7492137E-2,4.0211916E-2,3.1851397E-3,-1.0258562E-2,5.23061E-3,1.987429E-2,-6.4333057E-4,3.245121E-2,-3.912715E-3],"split_indices":[2,6,5,21,2,0,0,11,10,27,5,0,0,0,0,0,0,0,0],"split_type":[0,0,0,0,0,0,0,0,0,0,0,0,0,0,0,0,0,0,0],"sum_hessian":[1.6194622E3,1.61132E3,8.142239E0,8.549934E2,7.563265E2,6.131911E0,2.0103276E0,2.2748657E2,6.2750684E2,2.8510834E2,4.7121817E2,2.0952974E1,2.065336E2,5.045062E2,1.23000656E2,1.8182495E2,1.0328337E2,2.5257812E1,4.4596036E2],"tree_param":{"num_deleted":"0","num_feature":"31","num_nodes":"19","size_leaf_vector":"1"}},{"base_weights":[7.680738E-3,2.0229726E-1,-2.2380365E-2,6.5045434E-1,1.2317539E-1,-3.3415016E-2,5.6460553E-1,-5.7210065E-2,7.605054E-1,-8.832721E-2,4.148403E-1,3.4279913E-1,-5.0944615E-2,-9.9936783E-1,8.0650824E-1,4.9683914E-2,-5.471786E-3,-8.9490125E-3,4.791733E-2,2.6409063E-2,-5.451818E-2,3.0505477E-2,-1.8526502E-2,-4.5333814E-2,-2.0358798E-3,-6.088802E-2,-1.2730262E-2,6.52372E-2,1.7835189E-2],"categories":[],"categories_nodes":[],"categories_segments":[],"categories_sizes":[],"default_left":[0,0,0,0,0,0,0,0,0,0,0,0,0,0,0,0,0,0,0,0,0,0,0,0,0,0,0,0,0],"id":28,"left_children":[1,3,5,7,9,11,13,-1,15,17,19,21,23,25,27,-1,-1,-1,-1,-1,-1,-1,-1,-1,-1,-1,-1,-1,-1],"loss_changes":[9.383631E0,7.529276E0,9.0193205E0,7.183997E0,1.1364311E1,9.0186E0,1.0527559E1,0E0,6.340561E0,1.0349398E1,1.3774042E1,1.1837292E1,1.1383668E1,3.224454E-1,4.6459227E0,0E0,0E0,0E0,0E0,0E0,0E0,0E0,0E0,0E0,0E0,0E0,0E0,0E0,0E0],"parents":[2147483647,0,0,1,1,2,2,3,3,4,4,5,5,6,6,8,8,9,9,10,10,11,11,12,12,13,13,14,14],"right_children":[2,4,6,8,10,12,14,-1,16,18,20,22,24,26,28,-1,-1,-1,-1,-1,-1,-1,-1,-1,-1,-1,-1,-1,-1],"split_conditions":[1.6323111E-3,1.1773128E-2,1.9048589E9,1.3886398E-1,4.242076E-2,1.2447108E8,3.2113087E-3,-5.7210065E-2,1.3956752E0,1.7909033E-2,6.864755E8,8.706978E-1,3.4526224E8,1.4760144E8,1.526249E-1,4.9683914E-2,-5.471786E-3,-8.9490125E-3,4.791733E-2,2.6409063E-2,-5.451818E-2,3.0505477E-2,-1.8526502E-2,-4.5333814E-2,-2.0358798E-3,-6.088802E-2,-1.2730262E-2,6.52372E-2,1.7835189E-2],"split_indices":[24,14,2,30,12,2,25,0,3,19,2,30,0,10,6,0,0,0,0,0,0,0,0,0,0,0,0,0,0],"split_type":[0,0,0,0,0,0,0,0,0,0,0,0,0,0,0,0,0,0,0,0,0,0,0,0,0,0,0,0,0],"sum_hessian":[1.6021595E3,2.1359692E2,1.3885626E3,3.0968155E1,1.8262877E2,1.3638666E3,2.469603E1,1.2463481E0,2.9721807E1,1.0626629E2,7.636248E1,5.9893692E1,1.3039729E3,2.888665E0,2.1807365E1,2.3327131E1,6.3946767E0,9.855903E1,7.7072563E0,7.161873E1,4.74375E0,4.367266E1,1.6221033E1,1.4364787E1,1.2896082E3,1.7425771E0,1.146088E0,9.444864E0,1.23625E1],"tree_param":{"num_deleted":"0","num_feature":"31","num_nodes":"29","size_leaf_vector":"1"}},{"base_weights":[1.8362105E-2,-8.811372E-2,9.772194E-2,-1.9788798E-2,-2.7983814E-1,1.7326957E-1,-9.4929576E-2,-5.7586353E-2,4.959817E-1,-1.9518323E-1,-1.2341187E0,1.3804013E-1,7.398741E-1,-1.3786045E-1,8.884033E-1,-4.7648676E-2,-2.0568129E-3,-1.67064E-2,3.751269E-2,3.1266995E-2,-1.2879366E-2,-5.867475E-3,-8.088588E-2,8.858218E-3,-1.718582E-2,-1.1872174E-2,4.4173446E-2,-2.0885118E-3,-2.9173052E-2,-1.1718982E-2,6.3771896E-2],"categories":[],"categories_nodes":[],"categories_segments":[],"categories_sizes":[],"default_left":[0,0,0,0,0,0,0,0,0,0,0,0,0,0,0,0,0,0,0,0,0,0,0,0,0,0,0,0,0,0,0],"id":29,"left_children":[1,3,5,7,9,11,13,15,17,19,21,23,25,27,29,-1,-1,-1,-1,-1,-1,-1,-1,-1,-1,-1,-1,-1,-1,-1,-1],"loss_changes":[1.3677798E1,9.050739E0,1.3513171E1,9.986076E0,1.4426851E1,1.3201391E1,1.1177037E1,6.9836316E0,7.6339903E0,8.761274E0,6.067484E0,1.1910599E1,5.652582E0,1.0755997E1,5.1175394E0,0E0,0E0,0E0,0E0,0E0,0E0,0E0,0E0,0E0,0E0,0E0,0E0,0E0,0E0,0E0,0E0],"parents":[2147483647,0,0,1,1,2,2,3,3,4,4,5,5,6,6,7,7,8,8,9,9,10,10,11,11,12,12,13,13,14,14],"right_children":[2,4,6,8,10,12,14,16,18,20,22,24,26,28,30,-1,-1,-1,-1,-1,-1,-1,-1,-1,-1,-1,-1,-1,-1,-1,-1],"split_conditions":[5.155392E-1,5.938805E-2,7.7656366E-2,2.4466934E0,1.0018411E-1,6.4854726E-2,1.7930457E-1,1.9013104E-1,2.6856782E0,4.687465E-2,1.2565817E-2,1.9636603E-2,7.2389804E-2,4.849589E-3,3.7429427E8,-4.7648676E-2,-2.0568129E-3,-1.67064E-2,3.751269E-2,3.1266995E-2,-1.2879366E-2,-5.867475E-3,-8.088588E-2,8.858218E-3,-1.718582E-2,-1.1872174E-2,4.4173446E-2,-2.0885118E-3,-2.9173052E-2,-1.1718982E-2,6.3771896E-2],"split_indices":[7,9,17,27,13,17,5,7,18,6,17,23,5,24,1,0,0,0,0,0,0,0,0,0,0,0,0,0,0,0,0],"split_type":[0,0,0,0,0,0,0,0,0,0,0,0,0,0,0,0,0,0,0,0,0,0,0,0,0,0,0,0,0,0,0],"sum_hessian":[1.6166738E3,6.903423E2,9.2633154E2,5.0977628E2,1.80566E2,6.654703E2,2.608613E2,4.757965E2,3.3979767E1,1.6695943E2,1.3606558E1,6.276866E2,3.7783688E1,2.5077272E2,1.0088566E1,7.556584E0,4.6823993E2,7.8941298E0,2.6085634E1,1.1162886E1,1.5579654E2,3.8126705E0,9.793888E0,5.8112476E2,4.656183E1,4.7565618E0,3.3027126E1,2.0718802E2,4.3584705E1,2.687265E0,7.4013004E0],"tree_param":{"num_deleted":"0","num_feature":"31","num_nodes":"31","size_leaf_vector":"1"}},{"base_weights":[1.6910894E-2,-2.5653958E-1,3.9293215E-2,-3.5330614E-1,5.812554E-1,1.8775927E-1,-6.7713796E-3,-1.3238658E-1,-7.127902E-1,1.4935912E0,-3.2699683E-1,5.1286705E-2,4.622805E-1,1.3931898E-2,-2.883036E-1,4.804003E-2,-1.5784493E-2,-4.86228E-2,4.4661113E-3,8.347772E-2,3.064622E-2,5.011316E-2,-4.7717247E-2,7.932593E-3,-2.061262E-2,2.7826695E-2,-4.4284843E-2,2.4872035E-4,4.3621946E-2,-5.168586E-2,-5.970578E-3],"categories":[],"categories_nodes":[],"categories_segments":[],"categories_sizes":[],"default_left":[0,0,0,0,0,0,0,0,0,0,0,0,0,0,0,0,0,0,0,0,0,0,0,0,0,0,0,0,0,0,0],"id":30,"left_children":[1,3,5,7,9,11,13,15,17,19,21,23,25,27,29,-1,-1,-1,-1,-1,-1,-1,-1,-1,-1,-1,-1,-1,-1,-1,-1],"loss_changes":[9.929988E0,1.0157483E1,1.0253115E1,8.694726E0,1.1334157E1,1.3276259E1,6.677923E0,1.4284904E1,8.813084E0,1.6397476E-2,7.110294E0,1.1922408E1,1.5453859E1,8.205109E0,9.756817E0,0E0,0E0,0E0,0E0,0E0,0E0,0E0,0E0,0E0,0E0,0E0,0E0,0E0,0E0,0E0,0E0],"parents":[2147483647,0,0,1,1,2,2,3,3,4,4,5,5,6,6,7,7,8,8,9,9,10,10,11,11,12,12,13,13,14,14],"right_children":[2,4,6,8,10,12,14,16,18,20,22,24,26,28,30,-1,-1,-1,-1,-1,-1,-1,-1,-1,-1,-1,-1,-1,-1,-1,-1],"split_conditions":[-2.4209008E-2,1.2896834E-1,5.8409436E7,5.5216998E-2,1.462682E-1,2.2956066E-1,1.6235682E-1,1.1992533E-2,2.2493209E-1,3.1833038E-2,2.2661355E-1,9.212039E-2,3.5523717E0,3.0872837E9,2.388916E0,4.804003E-2,-1.5784493E-2,-4.86228E-2,4.4661113E-3,8.347772E-2,3.064622E-2,5.011316E-2,-4.7717247E-2,7.932593E-3,-2.061262E-2,2.7826695E-2,-4.4284843E-2,2.4872035E-4,4.3621946E-2,-5.168586E-2,-5.970578E-3],"split_indices":[22,5,11,13,5,6,5,5,6,8,6,8,18,2,18,0,0,0,0,0,0,0,0,0,0,0,0,0,0,0,0],"split_type":[0,0,0,0,0,0,0,0,0,0,0,0,0,0,0,0,0,0,0,0,0,0,0,0,0,0,0,0,0,0,0],"sum_hessian":[1.619779E3,1.2175883E2,1.4980201E3,1.0967007E2,1.2088764E1,3.5400073E2,1.1440194E3,6.877371E1,4.089635E1,5.7093134E0,6.379451E0,2.3724574E2,1.16755E2,1.066539E3,7.748048E1,9.266774E0,5.950694E1,3.0734411E1,1.016194E1,4.011921E0,1.6973927E0,1.8538313E0,4.5256195E0,1.9316298E2,4.4082767E1,1.0967353E2,7.0814657E0,1.0565212E3,1.0017738E1,1.3366442E1,6.411404E1],"tree_param":{"num_deleted":"0","num_feature":"31","num_nodes":"31","size_leaf_vector":"1"}},{"base_weights":[-8.817909E-3,4.645967E-1,-2.384002E-2,6.1871755E-1,-1.1595345E0,-1.6645428E-2,-9.137886E-1,-5.433188E-2,6.9087183E-1,-6.90367E-2,-1.2922575E-2,1.544568E-2,-1.932919E-1,1.5165266E-1,-1.1566523E0,4.6136748E-2,9.011657E-3,3.9810943E-4,5.7865467E-2,2.8256346E-2,-1.307753E-2,-1.7545173E-2,3.017101E-2,-7.9476066E-2,9.204279E-3],"categories":[],"categories_nodes":[],"categories_segments":[],"categories_sizes":[],"default_left":[0,0,0,0,0,0,0,0,0,0,0,0,0,0,0,0,0,0,0,0,0,0,0,0,0],"id":31,"left_children":[1,3,5,7,9,11,13,-1,15,-1,-1,17,19,21,23,-1,-1,-1,-1,-1,-1,-1,-1,-1,-1],"loss_changes":[1.1407678E1,1.3066597E1,9.935936E0,6.375429E0,5.647578E-1,8.7484255E0,3.3956757E0,0E0,5.0985107E0,0E0,0E0,1.115486E1,1.2430075E1,9.369724E-1,6.2418156E0,0E0,0E0,0E0,0E0,0E0,0E0,0E0,0E0,0E0,0E0],"parents":[2147483647,0,0,1,1,2,2,3,3,4,4,5,5,6,6,8,8,11,11,12,12,13,13,14,14],"right_children":[2,4,6,8,10,12,14,-1,16,-1,-1,18,20,22,24,-1,-1,-1,-1,-1,-1,-1,-1,-1,-1],"split_conditions":[3.0754742E-1,3.8957343E-2,8.339908E-1,1.029661E-2,3.4129765E0,3.5885413E0,1.0581382E-2,-5.433188E-2,3.7568364E-1,-6.90367E-2,-1.2922575E-2,3.5839252E0,1.0039045E-1,4.0366042E-2,7.575271E8,4.6136748E-2,9.011657E-3,3.9810943E-4,5.7865467E-2,2.8256346E-2,-1.307753E-2,-1.7545173E-2,3.017101E-2,-7.9476066E-2,9.204279E-3],"split_indices":[27,23,29,13,18,18,17,0,29,0,0,18,6,8,2,0,0,0,0,0,0,0,0,0,0],"split_type":[0,0,0,0,0,0,0,0,0,0,0,0,0,0,0,0,0,0,0,0,0,0,0,0,0],"sum_hessian":[1.6015173E3,4.833502E1,1.5531824E3,4.4711224E1,3.623795E0,1.5417372E3,1.1445129E1,1.2442255E0,4.3467E1,2.482164E0,1.1416311E0,1.3054844E3,2.3625288E2,2.1943035E0,9.250826E0,2.9338425E1,1.4128572E1,1.2979846E3,7.4996967E0,1.890634E1,2.1734654E2,1.1444538E0,1.0498499E0,6.852787E0,2.398039E0],"tree_param":{"num_deleted":"0","num_feature":"31","num_nodes":"25","size_leaf_vector":"1"}},{"base_weights":[-7.7257203E-3,8.529655E-2,-7.23434E-2,-3.608727E-1,1.2136342E-1,5.8779165E-2,-1.7191173E-1,-6.148548E-1,2.2723913E-1,1.9879384E-2,2.7035168E-1,-2.1835206E-1,1.847985E-1,-1.1014425E0,-1.4083645E-1,3.1513523E-2,-4.1422755E-2,-1.5283569E-2,5.53341E-2,1.3772549E-2,-1.0252499E-2,9.777178E-4,2.0573711E-2,-3.588542E-2,-3.1020835E-3,3.3708204E-2,4.118257E-3,-8.321697E-2,-1.9409545E-2,-5.4272693E-3,-3.1468734E-2],"categories":[],"categories_nodes":[],"categories_segments":[],"categories_sizes":[],"default_left":[0,0,0,0,0,0,0,0,0,0,0,0,0,0,0,0,0,0,0,0,0,0,0,0,0,0,0,0,0,0,0],"id":32,"left_children":[1,3,5,7,9,11,13,15,17,19,21,23,25,27,29,-1,-1,-1,-1,-1,-1,-1,-1,-1,-1,-1,-1,-1,-1,-1,-1],"loss_changes":[9.701808E0,1.0690928E1,1.2443913E1,7.568874E0,9.261744E0,1.4421897E1,1.548844E1,9.832188E0,7.71089E0,2.1076345E1,8.778404E0,1.0038593E1,1.4161411E1,6.328989E0,8.216931E0,0E0,0E0,0E0,0E0,0E0,0E0,0E0,0E0,0E0,0E0,0E0,0E0,0E0,0E0,0E0,0E0],"parents":[2147483647,0,0,1,1,2,2,3,3,4,4,5,5,6,6,7,7,8,8,9,9,10,10,11,11,12,12,13,13,14,14],"right_children":[2,4,6,8,10,12,14,16,18,20,22,24,26,28,30,-1,-1,-1,-1,-1,-1,-1,-1,-1,-1,-1,-1,-1,-1,-1,-1],"split_conditions":[4.4134397E8,4.9782316E-3,-8.670538E-3,6.19608E-1,9.29956E-2,4.3904808E-1,-2.0798214E-2,9.173335E-2,8.185364E-4,4.1549247E-2,-4.989464E-4,6.2084845E8,-1.2684037E-2,3.4175533E-1,2.777778E-1,3.1513523E-2,-4.1422755E-2,-1.5283569E-2,5.53341E-2,1.3772549E-2,-1.0252499E-2,9.777178E-4,2.0573711E-2,-3.588542E-2,-3.1020835E-3,3.3708204E-2,4.118257E-3,-8.321697E-2,-1.9409545E-2,-5.4272693E-3,-3.1468734E-2],"split_indices":[2,16,23,7,13,7,22,28,20,13,20,2,21,30,6,0,0,0,0,0,0,0,0,0,0,0,0,0,0,0,0],"split_type":[0,0,0,0,0,0,0,0,0,0,0,0,0,0,0,0,0,0,0,0,0,0,0,0,0,0,0,0,0,0,0],"sum_hessian":[1.6120137E3,6.606441E2,9.513695E2,4.8736626E1,6.119075E2,4.1079672E2,5.405728E2,3.400552E1,1.4731107E1,3.6465472E2,2.4725278E2,1.2818039E2,2.8261633E2,1.6373085E1,5.241997E2,4.6937666E0,2.9311754E1,9.579003E0,5.152103E0,1.7059494E2,1.9405977E2,8.944078E1,1.57812E2,2.9701874E1,9.8478516E1,4.7951435E1,2.346649E2,8.405792E0,7.967293E0,4.928461E2,3.135362E1],"tree_param":{"num_deleted":"0","num_feature":"31","num_nodes":"31","size_leaf_vector":"1"}},{"base_weights":[2.6827252E-2,-2.8219584E-1,4.7397263E-2,1.039553E-1,-5.899061E-1,1.7455226E-1,5.5722444E-4,4.882685E-1,-4.062146E-1,-7.785765E-1,4.9798852E-1,1.4082968E-1,7.8719103E-1,4.939655E-1,-1.3463907E-2,-1.825226E-2,4.7822636E-2,-4.7526658E-2,2.80038E-2,-4.4194885E-2,3.1098431E-2,4.7591932E-2,-5.331389E-2,1.1699371E-2,-1.0663845E-2,-4.370319E-2,6.021097E-2,7.60631E-2,-9.78764E-4,1.3016445E-3,-1.0163979E-2],"categories":[],"categories_nodes":[],"categories_segments":[],"categories_sizes":[],"default_left":[0,0,0,0,0,0,0,0,0,0,0,0,0,0,0,0,0,0,0,0,0,0,0,0,0,0,0,0,0,0,0],"id":33,"left_children":[1,3,5,7,9,11,13,15,17,19,21,23,25,27,29,-1,-1,-1,-1,-1,-1,-1,-1,-1,-1,-1,-1,-1,-1,-1,-1],"loss_changes":[1.0238809E1,1.2007629E1,8.987966E0,9.106889E0,1.1902903E1,8.28215E0,7.643187E0,1.0883787E1,1.1087362E1,7.6596947E0,7.3345127E0,1.279215E1,1.5585461E1,1.613485E1,8.059546E0,0E0,0E0,0E0,0E0,0E0,0E0,0E0,0E0,0E0,0E0,0E0,0E0,0E0,0E0,0E0,0E0],"parents":[2147483647,0,0,1,1,2,2,3,3,4,4,5,5,6,6,7,7,8,8,9,9,10,10,11,11,12,12,13,13,14,14],"right_children":[2,4,6,8,10,12,14,16,18,20,22,24,26,28,30,-1,-1,-1,-1,-1,-1,-1,-1,-1,-1,-1,-1,-1,-1,-1,-1],"split_conditions":[-2.7809095E-2,-4.578445E-3,6.1634624E7,1.8299571E0,5.4732734E-1,1.2072817E9,2.1582916E-1,2.2259206E-2,3.2842287E-1,2.3403685E0,-2.2389127E-2,7.2025926E8,3.2123678E0,1.5831875E9,1.9636603E-2,-1.825226E-2,4.7822636E-2,-4.7526658E-2,2.80038E-2,-4.4194885E-2,3.1098431E-2,4.7591932E-2,-5.331389E-2,1.1699371E-2,-1.0663845E-2,-4.370319E-2,6.021097E-2,7.60631E-2,-9.78764E-4,1.3016445E-3,-1.0163979E-2],"split_indices":[22,20,11,27,28,1,4,8,29,27,23,1,18,0,23,0,0,0,0,0,0,0,0,0,0,0,0,0,0,0,0],"split_type":[0,0,0,0,0,0,0,0,0,0,0,0,0,0,0,0,0,0,0,0,0,0,0,0,0,0,0,0,0,0,0],"sum_hessian":[1.6076301E3,9.953894E1,1.5080912E3,4.44367E1,5.5102238E1,4.0524915E2,1.102842E3,2.536903E1,1.9067669E1,4.7200687E1,7.9015503E0,3.852718E2,1.9977337E1,2.9527552E1,1.0733145E3,9.065863E0,1.6303167E1,1.22074375E1,6.860232E0,4.4242535E1,2.958153E0,6.4280515E0,1.4734988E0,3.0529462E2,7.997717E1,3.788743E0,1.6188595E1,9.187137E0,2.0340416E1,8.8916095E2,1.8415353E2],"tree_param":{"num_deleted":"0","num_feature":"31","num_nodes":"31","size_leaf_vector":"1"}},{"base_weights":[1.0149836E-3,7.215623E-3,-8.523274E-1,1.1123623E-1,-4.5095462E-2,-1.1740309E0,2.6266405E-2,-1.6247734E-1,2.2110076E-1,1.0532183E-1,-1.183394E-1,-2.518428E-2,-7.764806E-2,-3.1455245E-3,-4.330793E-2,2.8705016E-2,7.6184506E-3,-2.500982E-2,8.348039E-3,-7.4473746E-2,-4.7699376E-3,-2.6885083E-2,2.922214E-2],"categories":[],"categories_nodes":[],"categories_segments":[],"categories_sizes":[],"default_left":[0,0,0,0,0,0,0,0,0,0,0,0,0,0,0,0,0,0,0,0,0,0,0],"id":34,"left_children":[1,3,5,7,9,11,-1,13,15,17,19,21,-1,-1,-1,-1,-1,-1,-1,-1,-1,-1,-1],"loss_changes":[8.537963E0,8.721057E0,5.775687E0,1.6162432E1,1.1762463E1,4.203561E0,0E0,1.0747599E1,9.207346E0,1.313888E1,2.2433878E1,1.3870999E0,0E0,0E0,0E0,0E0,0E0,0E0,0E0,0E0,0E0,0E0,0E0],"parents":[2147483647,0,0,1,1,2,2,3,3,4,4,5,5,7,7,8,8,9,9,10,10,11,11],"right_children":[2,4,6,8,10,12,-1,14,16,18,20,22,-1,-1,-1,-1,-1,-1,-1,-1,-1,-1,-1],"split_conditions":[8.339908E-1,9.394341E8,1.3641311E-2,1.8142514E-1,-8.9103505E-3,9.663926E-3,2.6266405E-2,1.0201095E-1,4.740538E-1,1.0027391E9,1.4277372E-1,1.0844119E0,-7.764806E-2,-3.1455245E-3,-4.330793E-2,2.8705016E-2,7.6184506E-3,-2.500982E-2,8.348039E-3,-7.4473746E-2,-4.7699376E-3,-2.6885083E-2,2.922214E-2],"split_indices":[29,0,26,6,23,17,0,17,27,0,30,3,0,0,0,0,0,0,0,0,0,0,0],"split_type":[0,0,0,0,0,0,0,0,0,0,0,0,0,0,0,0,0,0,0,0,0,0,0],"sum_hessian":[1.6114324E3,1.6007921E3,1.0640286E1,5.3527374E2,1.0655184E3,8.745811E0,1.8944747E0,1.5317607E2,3.8209766E2,3.487895E2,7.1672894E2,2.4337103E0,6.3121014E0,1.3514345E2,1.8032618E1,6.107414E1,3.210235E2,3.156746E1,3.1722205E2,1.0742376E1,7.059866E2,1.3862574E0,1.0474529E0],"tree_param":{"num_deleted":"0","num_feature":"31","num_nodes":"23","size_leaf_vector":"1"}},{"base_weights":[-1.9203495E-2,-9.1252476E-2,5.8309056E-2,-1.0128674E-1,8.874458E-1,3.929999E-1,6.583703E-3,6.4457536E-2,-1.6321027E-1,1.3247212E0,-3.087785E-2,-3.0687928E-1,5.181233E-1,7.692404E-2,-2.6038906E-1,2.92314E-2,-1.7580073E-3,1.4559954E-2,-1.0555608E-2,8.147719E-3,7.733514E-2,-3.5473727E-2,4.5471225E-2,3.0437097E-2,-2.4629202E-2,7.825201E-3,-6.659351E-3,-4.8269015E-2,-7.6564024E-3],"categories":[],"categories_nodes":[],"categories_segments":[],"categories_sizes":[],"default_left":[0,0,0,0,0,0,0,0,0,0,0,0,0,0,0,0,0,0,0,0,0,0,0,0,0,0,0,0,0],"id":35,"left_children":[1,3,5,7,9,11,13,15,17,19,-1,21,23,25,27,-1,-1,-1,-1,-1,-1,-1,-1,-1,-1,-1,-1,-1,-1],"loss_changes":[9.036192E0,8.324024E0,1.3494033E1,8.537939E0,6.4854393E0,9.296276E0,1.27196665E1,1.1767772E1,1.3233828E1,1.5508318E0,0E0,8.701803E0,8.441029E0,8.983408E0,1.0533334E1,0E0,0E0,0E0,0E0,0E0,0E0,0E0,0E0,0E0,0E0,0E0,0E0,0E0,0E0],"parents":[2147483647,0,0,1,1,2,2,3,3,4,4,5,5,6,6,7,7,8,8,9,9,11,11,12,12,13,13,14,14],"right_children":[2,4,6,8,10,12,14,16,18,20,-1,22,24,26,28,-1,-1,-1,-1,-1,-1,-1,-1,-1,-1,-1,-1,-1,-1],"split_conditions":[2.1567124E-1,2.3005076E9,4.407353E-1,-5.654542E-3,2.2418485E-3,5.175726E-1,7.2530176E8,5.56371E7,3.2380152E-2,6.32107E-2,-3.087785E-2,4.1966802E-1,1.6157558E8,7.7656366E-2,2.8910444E-3,2.92314E-2,-1.7580073E-3,1.4559954E-2,-1.0555608E-2,8.147719E-3,7.733514E-2,-3.5473727E-2,4.5471225E-2,3.0437097E-2,-2.4629202E-2,7.825201E-3,-6.659351E-3,-4.8269015E-2,-7.6564024E-3],"split_indices":[6,2,27,21,20,7,2,11,5,28,0,27,11,17,25,0,0,0,0,0,0,0,0,0,0,0,0,0,0],"split_type":[0,0,0,0,0,0,0,0,0,0,0,0,0,0,0,0,0,0,0,0,0,0,0,0,0,0,0,0,0],"sum_hessian":[1.6160736E3,8.3746295E2,7.786106E2,8.298513E2,7.611675E0,1.03341E2,6.752696E2,2.2570071E2,6.041506E2,5.990838E0,1.6208371E0,1.5452829E1,8.788817E1,5.350182E2,1.4025143E2,3.5494022E1,1.902067E2,5.7129246E1,5.4702136E2,1.2392368E0,4.751601E0,1.1923019E1,3.5298102E0,8.102159E1,6.8665767E0,3.8823032E2,1.4678787E2,1.746427E1,1.2278716E2],"tree_param":{"num_deleted":"0","num_feature":"31","num_nodes":"29","size_leaf_vector":"1"}},{"base_weights":[-2.983302E-3,2.9154477E-1,-1.9932253E-2,4.2603868E-1,-6.732178E-1,-3.7546536E-1,-6.4368453E-3,1.4743194E-1,8.262659E-1,-2.757092E-3,-7.928488E-2,-8.4621996E-1,-3.6249693E-2,1.1146808E-1,-5.879723E-2,-3.9293867E-2,1.5286605E-2,-2.8939107E-2,4.9781967E-2,-4.7310587E-2,4.0838227E-2,-9.089375E-3,-6.0118634E-2,-2.7769625E-2,3.7986677E-2,4.86647E-2,3.9768745E-3,-6.1445512E-2,-2.2942855E-3],"categories":[],"categories_nodes":[],"categories_segments":[],"categories_sizes":[],"default_left":[0,0,0,0,0,0,0,0,0,0,0,0,0,0,0,0,0,0,0,0,0,0,0,0,0,0,0,0,0],"id":36,"left_children":[1,3,5,7,9,11,13,15,17,19,-1,21,23,25,27,-1,-1,-1,-1,-1,-1,-1,-1,-1,-1,-1,-1,-1,-1],"loss_changes":[8.0431E0,1.1663015E1,7.3068485E0,8.526596E0,6.795311E0,8.862736E0,9.073553E0,7.176077E0,8.09993E0,6.501089E0,0E0,5.29023E0,1.4229299E1,1.2360968E1,1.5318758E1,0E0,0E0,0E0,0E0,0E0,0E0,0E0,0E0,0E0,0E0,0E0,0E0,0E0,0E0],"parents":[2147483647,0,0,1,1,2,2,3,3,4,4,5,5,6,6,7,7,8,8,9,9,11,11,12,12,13,13,14,14],"right_children":[2,4,6,8,10,12,14,16,18,20,-1,22,24,26,28,-1,-1,-1,-1,-1,-1,-1,-1,-1,-1,-1,-1,-1,-1],"split_conditions":[3.4130924E7,1.2407238E-1,1.1037528E-2,6.33944E-2,1.1515003E0,7.088118E-4,-9.475619E-3,5.4880464E-1,-8.218944E-3,6.2390924E-2,-7.928488E-2,3.1477716E-2,7.11223E-2,7.2067054E-3,-1.4948539E-2,-3.9293867E-2,1.5286605E-2,-2.8939107E-2,4.9781967E-2,-4.7310587E-2,4.0838227E-2,-9.089375E-3,-6.0118634E-2,-2.7769625E-2,3.7986677E-2,4.86647E-2,3.9768745E-3,-6.1445512E-2,-2.2942855E-3],"split_indices":[11,14,29,16,27,23,23,27,21,13,0,16,16,17,20,0,0,0,0,0,0,0,0,0,0,0,0,0,0],"split_type":[0,0,0,0,0,0,0,0,0,0,0,0,0,0,0,0,0,0,0,0,0,0,0,0,0,0,0,0,0],"sum_hessian":[1.6090527E3,8.667465E1,1.522378E3,7.65601E1,1.0114555E1,5.4692642E1,1.4676854E3,4.5945095E1,3.0615E1,6.408684E0,3.7058723E0,2.2279331E1,3.241331E1,4.5099887E2,1.0166865E3,6.0878363E0,3.9857258E1,3.0334697E0,2.758153E1,2.9072227E0,3.501461E0,8.301888E0,1.3977443E1,1.9801176E1,1.2612135E1,1.5059245E1,4.3593964E2,1.0068239E1,1.0066183E3],"tree_param":{"num_deleted":"0","num_feature":"31","num_nodes":"29","size_leaf_vector":"1"}}]},"name":"gbtree"},"learner_model_param":{"base_score":"[4.9221024E-1]","boost_from_average":"1","num_class":"0","num_feature":"31","num_target":"1"},"objective":{"name":"binary:logistic","reg_loss_param":{"scale_pos_weight":"1.61032867"}}},"version":[3,2,0]}